{"learner":{"attributes":{"best_iteration":"99","best_score":"0.02388935602439839"},"feature_names":[],"feature_types":[],"gradient_booster":{"model":{"gbtree_model_param":{"num_parallel_tree":"1","num_trees":"100"},"iteration_indptr":[0,1,2,3,4,5,6,7,8,9,10,11,12,13,14,15,16,17,18,19,20,21,22,23,24,25,26,27,28,29,30,31,32,33,34,35,36,37,38,39,40,41,42,43,44,45,46,47,48,49,50,51,52,53,54,55,56,57,58,59,60,61,62,63,64,65,66,67,68,69,70,71,72,73,74,75,76,77,78,79,80,81,82,83,84,85,86,87,88,89,90,91,92,93,94,95,96,97,98,99,100],"tree_info":[0,0,0,0,0,0,0,0,0,0,0,0,0,0,0,0,0,0,0,0,0,0,0,0,0,0,0,0,0,0,0,0,0,0,0,0,0,0,0,0,0,0,0,0,0,0,0,0,0,0,0,0,0,0,0,0,0,0,0,0,0,0,0,0,0,0,0,0,0,0,0,0,0,0,0,0,0,0,0,0,0,0,0,0,0,0,0,0,0,0,0,0,0,0,0,0,0,0,0,0],"trees":[{"base_weights":[-1.2160217E-2,-8.0908644E-1,2.1690725E-1,5.738495E-1,-1.6395518E0,1.5497116E0,-1.7910872E-1,1.437839E0,-1.7496763E0,1.8470206E0,-1.5201733E-1,-5.7099372E-2,1.8782763E-1,-1.800544E0,1.3906382E-1,2.0098104E0,5.2798766E-1,-1.809822E-1,-2.9538289E-2,2.0594981E-1,-5.7099372E-2,-1.3096803E-1,1.2231269E-1],"categories":[],"categories_nodes":[],"categories_segments":[],"categories_sizes":[],"default_left":[0,0,0,0,0,0,0,0,0,0,0,0,0,0,0,0,0,0,0,0,0,0,0],"id":0,"left_children":[1,3,-1,5,7,9,-1,11,13,15,-1,-1,-1,17,-1,19,21,-1,-1,-1,-1,-1,-1],"loss_changes":[8.395503E2,4.0718832E2,0E0,3.1077777E2,7.750256E1,8.9524475E1,0E0,8.321743E0,3.6700317E1,1.7635681E1,0E0,0E0,0E0,2.413391E0,0E0,1.1069336E1,1.5554016E1,0E0,0E0,0E0,0E0,0E0,0E0],"parents":[2147483647,0,0,1,1,3,3,4,4,5,5,7,7,8,8,9,9,13,13,15,15,16,16],"right_children":[2,4,-1,6,8,10,-1,12,14,16,-1,-1,-1,18,-1,20,22,-1,-1,-1,-1,-1,-1],"split_conditions":[1.4651527E0,-5.9750694E-1,2.1690725E-1,-4.2641157E-1,-4.282702E-1,-2.303808E-1,-1.7910872E-1,-1.3043623E-1,3.3862543E0,-6.4279065E-2,-1.5201733E-1,-5.7099372E-2,1.8782763E-1,2.4700274E0,1.3906382E-1,1.8596466E0,1.733618E-3,-1.809822E-1,-2.9538289E-2,2.0594981E-1,-5.7099372E-2,-1.3096803E-1,1.2231269E-1],"split_indices":[13,40,0,0,0,67,0,24,27,19,0,0,0,51,0,46,55,0,0,0,0,0,0],"split_type":[0,0,0,0,0,0,0,0,0,0,0,0,0,0,0,0,0,0,0,0,0,0,0],"sum_hessian":[4.8096762E2,3.5272614E2,1.282415E2,1.3245834E2,2.2026779E2,9.401069E1,3.8447643E1,7.1934304E0,2.1307437E2,8.607311E1,7.937578E0,1.2402465E0,5.9531837E0,2.1009778E2,2.9765918E0,7.615114E1,9.921972E0,2.0860948E2,1.4882959E0,7.49109E1,1.2402465E0,2.480493E0,7.4414797E0],"tree_param":{"num_deleted":"0","num_feature":"78","num_nodes":"23","size_leaf_vector":"1"}},{"base_weights":[3.1353746E-2,1.2426254E0,-1.123137E0,-1.6540247E-1,1.5699048E0,-1.3667804E0,1.6390983E0,1.7097992E0,-1.0516549E0,-1.4922364E0,1.1594208E0,1.8577527E-1,-9.716468E-2,1.8430074E0,2.6730317E-1,1.2403692E-1,-1.5310717E-1,-1.6614445E0,-1.1640191E0,-1.0691335E-1,1.6701883E-1,1.8907668E-1,-1.20243564E-1,-1.353781E-1,1.3139877E0,-1.6875811E-1,-7.424993E-1,4.0512922E-1,-1.6575836E-1,1.7699747E-1,-1.0607844E-1,2.7693704E-2,-1.264007E-1,-1.380173E-1,9.560085E-2],"categories":[],"categories_nodes":[],"categories_segments":[],"categories_sizes":[],"default_left":[0,0,0,0,0,0,0,0,0,0,0,0,0,0,0,0,0,0,0,0,0,0,0,0,0,0,0,0,0,0,0,0,0,0,0],"id":1,"left_children":[1,3,5,-1,7,9,11,13,15,17,19,-1,-1,21,23,-1,-1,25,27,-1,-1,-1,-1,-1,29,-1,31,33,-1,-1,-1,-1,-1,-1,-1],"loss_changes":[6.656827E2,2.2281146E2,1.6627899E2,0E0,7.852875E1,7.289011E1,1.3342758E1,3.774646E1,1.4226162E1,9.970154E0,1.4518187E1,0E0,0E0,2.8746765E1,3.2309105E1,0E0,0E0,2.087677E0,5.9727974E1,0E0,0E0,0E0,0E0,0E0,1.4266771E1,0E0,3.3444095E0,2.0054337E1,0E0,0E0,0E0,0E0,0E0,0E0,0E0],"parents":[2147483647,0,0,1,1,2,2,4,4,5,5,6,6,7,7,8,8,9,9,10,10,13,13,14,14,17,17,18,18,24,24,26,26,27,27],"right_children":[2,4,6,-1,8,10,12,14,16,18,20,-1,-1,22,24,-1,-1,26,28,-1,-1,-1,-1,-1,30,-1,32,34,-1,-1,-1,-1,-1,-1,-1],"split_conditions":[-1.5282159E-1,1.7340101E-3,1.402121E0,-1.6540247E-1,4.1822476E0,4.245349E0,1.032355E-2,-4.4510347E-1,-8.693849E-2,-2.4440546E-1,-3.124517E-1,1.8577527E-1,-9.716468E-2,-2.7859554E-1,-4.3358377E-1,1.2403692E-1,-1.5310717E-1,4.1822476E0,-2.3115979E-1,-1.0691335E-1,1.6701883E-1,1.8907668E-1,-1.20243564E-1,-1.353781E-1,1.5108014E0,-1.6875811E-1,-7.454475E-3,3.541389E-3,-1.6575836E-1,1.7699747E-1,-1.0607844E-1,2.7693704E-2,-1.264007E-1,-1.380173E-1,9.560085E-2],"split_indices":[37,34,41,0,44,43,2,66,4,67,21,0,0,7,1,0,0,44,67,0,0,0,0,0,66,0,5,69,0,0,0,0,0,0,0],"split_type":[0,0,0,0,0,0,0,0,0,0,0,0,0,0,0,0,0,0,0,0,0,0,0,0,0,0,0,0,0,0,0,0,0,0,0],"sum_hessian":[4.74033E2,2.3129059E2,2.427424E2,2.3068096E1,2.0822249E2,2.23531E2,1.9211395E1,1.9800418E2,1.0218308E1,2.1334517E2,1.0185832E1,1.7992882E1,1.2185135E0,1.8101096E2,1.6993223E1,1.4930415E0,8.725267E0,1.3809174E2,7.525343E1,1.6953923E0,8.490439E0,1.7858943E2,2.4215307E0,6.5520854E0,1.0441138E1,1.3345947E2,4.6322675E0,1.8049461E1,5.7203976E1,8.972901E0,1.4682369E0,1.7264307E0,2.905837E0,3.901144E0,1.4148317E1],"tree_param":{"num_deleted":"0","num_feature":"78","num_nodes":"35","size_leaf_vector":"1"}},{"base_weights":[-1.6371509E-2,-7.003875E-1,1.7822914E-1,5.2111775E-1,-1.4170507E0,1.3412067E0,-1.5738021E-1,9.9177665E-1,-1.5118527E0,1.5453508E0,-1.3757531E-1,-5.813701E-2,1.6141532E-1,-1.569389E0,1.2631355E-1,7.239718E-1,1.697964E0,-1.5739032E0,-4.364089E-2,-1.3764146E-1,1.514502E-1,1.7653587E-1,9.417852E-2,-1.5779614E-1,-4.977867E-2],"categories":[],"categories_nodes":[],"categories_segments":[],"categories_sizes":[],"default_left":[0,0,0,0,0,0,0,0,0,0,0,0,0,0,0,0,0,0,0,0,0,0,0,0,0],"id":2,"left_children":[1,3,-1,5,7,9,-1,11,13,15,-1,-1,-1,17,-1,19,21,23,-1,-1,-1,-1,-1,-1,-1],"loss_changes":[5.7418585E2,2.967128E2,0E0,2.1814775E2,5.0220703E1,5.254962E1,0E0,9.439461E0,3.4819824E1,9.42926E0,0E0,0E0,0E0,3.4594727E-1,0E0,2.7100811E1,1.9537964E0,9.124756E-2,0E0,0E0,0E0,0E0,0E0,0E0,0E0],"parents":[2147483647,0,0,1,1,3,3,4,4,5,5,7,7,8,8,9,9,13,13,15,15,16,16,17,17],"right_children":[2,4,-1,6,8,10,-1,12,14,16,-1,-1,-1,18,-1,20,22,24,-1,-1,-1,-1,-1,-1,-1],"split_conditions":[1.4651527E0,-5.9750694E-1,1.7822914E-1,-4.2641157E-1,-4.282702E-1,-2.303808E-1,-1.5738021E-1,-1.3043623E-1,3.3862543E0,1.733618E-3,-1.3757531E-1,-5.813701E-2,1.6141532E-1,9.2043705E0,1.2631355E-1,-2.3294033E-1,-1.3030712E-1,2.4700274E0,-4.364089E-2,-1.3764146E-1,1.514502E-1,1.7653587E-1,9.417852E-2,-1.5779614E-1,-4.977867E-2],"split_indices":[13,40,0,0,0,67,0,24,27,34,0,0,0,21,0,67,24,51,0,0,0,0,0,0,0],"split_type":[0,0,0,0,0,0,0,0,0,0,0,0,0,0,0,0,0,0,0,0,0,0,0,0,0],"sum_hessian":[4.6468396E2,3.370988E2,1.2758515E2,1.247476E2,2.1235121E2,8.991051E1,3.483709E1,7.6825933E0,2.0466861E2,8.4028114E1,5.8823943E0,2.1965027E0,5.4860907E0,2.0093687E2,3.7317448E0,1.4066215E1,6.99619E1,1.997518E2,1.1850598E0,3.643787E0,1.0422427E1,6.30114E1,6.9505E0,1.9853673E2,1.215074E0],"tree_param":{"num_deleted":"0","num_feature":"78","num_nodes":"25","size_leaf_vector":"1"}},{"base_weights":[1.4984802E-2,1.0873921E0,-1.0178906E0,-1.446412E-1,1.354933E0,-1.2222015E0,1.364205E0,1.4630831E0,-7.8210527E-1,-1.3186464E0,8.539996E-1,1.570174E-1,-8.9581996E-2,1.5060368E0,-1.1811941E-1,1.1976202E-1,-1.332008E-1,-1.3832647E0,-6.3089216E-1,-9.915849E-2,1.3967185E-1,1.547477E0,-1.09106384E-1,-1.4007055E0,6.6797204E-2,1.22491695E-1,-1.4094798E-1,1.6110326E-1,6.954613E-2,-9.696375E-2,-1.4975078E-1],"categories":[],"categories_nodes":[],"categories_segments":[],"categories_sizes":[],"default_left":[0,0,0,0,0,0,0,0,0,0,0,0,0,0,0,0,0,0,0,0,0,0,0,0,0,0,0,0,0,0,0],"id":3,"left_children":[1,3,5,-1,7,9,11,13,15,17,19,-1,-1,21,-1,-1,-1,23,25,-1,-1,27,-1,29,-1,-1,-1,-1,-1,-1,-1],"loss_changes":[4.8924173E2,1.4885349E2,1.1117149E2,0E0,4.6562286E1,4.2726288E1,9.900059E0,2.3063385E1,1.2609802E1,7.9677734E0,1.1230194E1,0E0,0E0,2.1581604E1,0E0,0E0,0E0,7.41098E0,2.9068886E1,0E0,0E0,8.753845E0,0E0,6.050598E0,0E0,0E0,0E0,0E0,0E0,0E0,0E0],"parents":[2147483647,0,0,1,1,2,2,4,4,5,5,6,6,7,7,8,8,9,9,10,10,13,13,17,17,18,18,21,21,23,23],"right_children":[2,4,6,-1,8,10,12,14,16,18,20,-1,-1,22,-1,-1,-1,24,26,-1,-1,28,-1,30,-1,-1,-1,-1,-1,-1,-1],"split_conditions":[-1.5282159E-1,1.7340101E-3,6.5305203E-1,-1.446412E-1,4.1822476E0,4.245349E0,1.032355E-2,1.5108014E0,-8.693849E-2,2.4747436E-3,-4.0374348E-1,1.570174E-1,-8.9581996E-2,-4.2168427E-1,-1.1811941E-1,1.1976202E-1,-1.332008E-1,3.9206564E-1,-2.8602034E-1,-9.915849E-2,1.3967185E-1,-4.4556415E-1,-1.09106384E-1,-7.454475E-3,6.6797204E-2,1.22491695E-1,-1.4094798E-1,1.6110326E-1,6.954613E-2,-9.696375E-2,-1.4975078E-1],"split_indices":[37,34,42,0,30,43,2,66,4,35,17,0,0,38,0,0,0,42,40,0,0,66,0,5,0,0,0,0,0,0,0],"split_type":[0,0,0,0,0,0,0,0,0,0,0,0,0,0,0,0,0,0,0,0,0,0,0,0,0,0,0,0,0,0,0],"sum_hessian":[4.39689E2,2.1569048E2,2.2399852E2,2.0178583E1,1.955119E2,2.0675241E2,1.724611E1,1.8639432E2,9.117575E0,1.9792323E2,8.829174E0,1.60854E1,1.1607128E0,1.8383852E2,2.5558167E0,1.7259694E0,7.391605E0,1.7999998E2,1.7923248E1,1.8184012E0,7.0107727E0,1.8134898E2,2.4895213E0,1.7879689E2,1.2030953E0,5.1277356E0,1.2795513E1,1.6793141E2,1.3417581E1,3.4808544E1,1.4398836E2],"tree_param":{"num_deleted":"0","num_feature":"78","num_nodes":"31","size_leaf_vector":"1"}},{"base_weights":[-1.6076E-4,-6.252906E-1,1.539865E0,4.0675005E-1,-1.2701949E0,1.557162E-1,-1.6225431E-2,1.1262654E0,-1.4424525E-1,1.042968E0,-1.3690218E0,1.3107526E0,-1.1365894E0,-3.3646926E-2,1.4457297E-1,-1.4106079E0,3.759288E-1,1.4559932E0,3.7157866E-1,-1.2278874E-1,-3.5127845E-2,-1.4190962E0,-5.678392E-3,-9.042772E-2,1.2155246E-1,9.073444E-2,1.536125E-1,-9.085518E-2,1.1685319E-1,-1.4236425E-1,-4.000334E-2],"categories":[],"categories_nodes":[],"categories_segments":[],"categories_sizes":[],"default_left":[0,0,0,0,0,0,0,0,0,0,0,0,0,0,0,0,0,0,0,0,0,0,0,0,0,0,0,0,0,0,0],"id":4,"left_children":[1,3,5,7,9,-1,-1,11,-1,13,15,17,19,-1,-1,21,23,25,27,-1,-1,29,-1,-1,-1,-1,-1,-1,-1,-1,-1],"loss_changes":[4.1083118E2,2.0253735E2,3.880188E0,1.5794434E2,4.4186707E1,0E0,0E0,3.7032776E1,0E0,5.059681E0,1.3578552E1,1.0260422E1,6.722641E-2,0E0,0E0,1.9401245E0,6.4467745E0,1.6062012E0,1.3251455E1,0E0,0E0,2.3986816E-1,0E0,0E0,0E0,0E0,0E0,0E0,0E0,0E0,0E0],"parents":[2147483647,0,0,1,1,2,2,3,3,4,4,7,7,9,9,10,10,11,11,12,12,15,15,16,16,17,17,18,18,21,21],"right_children":[2,4,6,8,10,-1,-1,12,-1,14,16,18,20,-1,-1,22,24,26,28,-1,-1,30,-1,-1,-1,-1,-1,-1,-1,-1,-1],"split_conditions":[1.0003581E0,-5.9750694E-1,-5.3836875E-2,-4.2641157E-1,-4.282702E-1,1.557162E-1,-1.6225431E-2,-2.303808E-1,-1.4424525E-1,-1.3043623E-1,3.2398324E0,-3.1163624E-1,-8.769706E-3,-3.3646926E-2,1.4457297E-1,2.2031465E0,-4.268364E-1,1.733618E-3,-1.3958499E-1,-1.2278874E-1,-3.5127845E-2,2.4700274E0,-5.678392E-3,-9.042772E-2,1.2155246E-1,9.073444E-2,1.536125E-1,-9.085518E-2,1.1685319E-1,-1.4236425E-1,-4.000334E-2],"split_indices":[13,40,73,0,0,0,0,67,0,24,28,16,3,0,0,22,0,34,16,0,0,51,0,0,0,0,0,0,0,0,0],"split_type":[0,0,0,0,0,0,0,0,0,0,0,0,0,0,0,0,0,0,0,0,0,0,0,0,0,0,0,0,0,0,0],"sum_hessian":[4.2474164E2,3.025315E2,1.2221012E2,1.16486855E2,1.8604465E2,1.2106502E2,1.1451032E0,8.413953E1,3.2347324E1,7.231397E0,1.7881326E2,7.8185905E1,5.953626E0,1.6714308E0,5.5599666E0,1.7483807E2,3.9751835E0,6.7237526E1,1.0948378E1,4.828688E0,1.1249378E0,1.7370076E2,1.1373053E0,1.5439491E0,2.4312344E0,1.0139218E1,5.709831E1,4.1470385E0,6.801339E0,1.7253404E2,1.1667223E0],"tree_param":{"num_deleted":"0","num_feature":"78","num_nodes":"31","size_leaf_vector":"1"}},{"base_weights":[7.205559E-3,-5.6134117E-1,1.4335953E0,4.1088358E-1,-1.2004436E0,1.4700061E-1,-1.0034966E-1,1.0935075E0,-1.3811289E-1,1.0404366E0,-1.296258E0,1.2561599E0,-1.0696951E-1,-2.0198213E-2,1.3512532E-1,-1.3413682E0,9.98996E-2,1.3950571E0,3.973112E-1,-1.3509572E0,7.292672E-4,9.861202E-2,1.4581656E-1,-1.2807992E-1,1.16859E-1,-1.3593781E-1,-3.2682937E-2],"categories":[],"categories_nodes":[],"categories_segments":[],"categories_sizes":[],"default_left":[0,0,0,0,0,0,0,0,0,0,0,0,0,0,0,0,0,0,0,0,0,0,0,0,0,0,0],"id":5,"left_children":[1,3,5,7,9,-1,-1,11,-1,13,15,17,-1,-1,-1,19,-1,21,23,25,-1,-1,-1,-1,-1,-1,-1],"loss_changes":[3.3234378E2,1.8256519E2,1.1838928E1,1.4459398E2,3.9364456E1,0E0,0E0,3.1342735E1,0E0,3.2907467E0,1.8966827E1,8.960228E0,0E0,0E0,0E0,2.1745605E0,0E0,3.236084E-1,1.7677221E1,9.8913574E-1,0E0,0E0,0E0,0E0,0E0,0E0,0E0],"parents":[2147483647,0,0,1,1,2,2,3,3,4,4,7,7,9,9,10,10,11,11,15,15,17,17,18,18,19,19],"right_children":[2,4,6,8,10,-1,-1,12,-1,14,16,18,-1,-1,-1,20,-1,22,24,26,-1,-1,-1,-1,-1,-1,-1],"split_conditions":[1.402121E0,-5.9750694E-1,-4.2641157E-1,-4.2641157E-1,-4.282702E-1,1.4700061E-1,-1.0034966E-1,-2.303808E-1,-1.3811289E-1,-1.3043623E-1,3.3862543E0,-3.113027E-1,-1.0696951E-1,-2.0198213E-2,1.3512532E-1,2.4700274E0,9.98996E-2,3.541389E-3,-1.3958499E-1,1.3162334E0,7.292672E-4,9.861202E-2,1.4581656E-1,-1.2807992E-1,1.16859E-1,-1.3593781E-1,-3.2682937E-2],"split_indices":[41,40,0,0,0,0,0,67,0,24,27,16,0,0,0,51,0,69,16,39,0,0,0,0,0,0,0],"split_type":[0,0,0,0,0,0,0,0,0,0,0,0,0,0,0,0,0,0,0,0,0,0,0,0,0,0,0],"sum_hessian":[4.078183E2,2.920258E2,1.1579252E2,1.1596814E2,1.7605765E2,1.1447899E2,1.3135315E0,8.42608E1,3.1707335E1,6.8148518E0,1.692428E2,7.875824E1,5.502568E0,1.433784E0,5.3810678E0,1.6638824E2,2.8545487E0,6.7256805E1,1.1501433E1,1.6521188E2,1.1763662E0,1.1214412E1,5.6042393E1,3.413623E0,8.0878105E0,1.6353983E2,1.6720546E0],"tree_param":{"num_deleted":"0","num_feature":"78","num_nodes":"27","size_leaf_vector":"1"}},{"base_weights":[8.776105E-3,-5.339608E-1,1.3931751E0,3.8751048E-1,-1.1489196E0,1.4097469E-1,1.4064806E-2,1.0173894E0,-1.3274555E-1,9.1340613E-1,-1.2452466E0,1.2020451E0,-1.069567E0,-3.262609E-2,1.2876427E-1,-1.293823E0,3.9762616E-1,1.3002348E0,4.179221E-1,-1.1595789E-1,-2.845764E-2,-1.3088064E-1,-5.1896054E-1,-8.5540794E-2,1.1570605E-1,1.3441537E-1,1.728153E-2,-9.72662E-2,9.080133E-2,-9.605983E-2,4.4123545E-2],"categories":[],"categories_nodes":[],"categories_segments":[],"categories_sizes":[],"default_left":[0,0,0,0,0,0,0,0,0,0,0,0,0,0,0,0,0,0,0,0,0,0,0,0,0,0,0,0,0,0,0],"id":6,"left_children":[1,3,5,7,9,-1,-1,11,-1,13,15,17,19,-1,-1,21,23,25,27,-1,-1,-1,29,-1,-1,-1,-1,-1,-1,-1,-1],"loss_changes":[2.9258313E2,1.5896866E2,2.0780182E0,1.2310988E2,3.451793E1,0E0,0E0,3.327307E1,0E0,4.1663275E0,1.3359436E1,5.3641357E0,1.8415642E-1,0E0,0E0,1.1385193E0,6.1163416E0,3.1206589E0,7.706852E0,0E0,0E0,0E0,2.3860354E0,0E0,0E0,0E0,0E0,0E0,0E0,0E0,0E0],"parents":[2147483647,0,0,1,1,2,2,3,3,4,4,7,7,9,9,10,10,11,11,12,12,15,15,16,16,17,17,18,18,22,22],"right_children":[2,4,6,8,10,-1,-1,12,-1,14,16,18,20,-1,-1,22,24,26,28,-1,-1,-1,30,-1,-1,-1,-1,-1,-1,-1,-1],"split_conditions":[1.0003581E0,-5.9750694E-1,-1.1960574E-1,-4.2641157E-1,-4.282702E-1,1.4097469E-1,1.4064806E-2,-2.303808E-1,-1.3274555E-1,-1.3043623E-1,3.2398324E0,-6.4279065E-2,-8.769706E-3,-3.262609E-2,1.2876427E-1,7.5408584E-1,-4.268364E-1,-4.8117155E-1,1.733618E-3,-1.1595789E-1,-2.845764E-2,-1.3088064E-1,-4.4572634E-1,-8.5540794E-2,1.1570605E-1,1.3441537E-1,1.728153E-2,-9.72662E-2,9.080133E-2,-9.605983E-2,4.4123545E-2],"split_indices":[13,40,72,0,0,0,0,67,0,24,28,19,3,0,0,16,0,20,34,0,0,0,41,0,0,0,0,0,0,0,0],"split_type":[0,0,0,0,0,0,0,0,0,0,0,0,0,0,0,0,0,0,0,0,0,0,0,0,0,0,0,0,0,0,0],"sum_hessian":[3.8741238E2,2.787472E2,1.0866518E2,1.1171709E2,1.6703012E2,1.07122345E2,1.542829E0,8.2004814E1,2.971227E1,7.0749903E0,1.5995512E2,7.572833E1,6.2764854E0,1.6702956E0,5.4046946E0,1.5556778E2,4.3873463E0,6.671581E1,9.01252E0,5.2027206E0,1.073765E0,1.5194063E2,3.627153E0,1.6079396E0,2.7794065E0,6.40293E1,2.6865146E0,2.092007E0,6.9205127E0,2.484157E0,1.1429957E0],"tree_param":{"num_deleted":"0","num_feature":"78","num_nodes":"31","size_leaf_vector":"1"}},{"base_weights":[-8.32571E-3,-5.320284E-1,1.352397E-1,3.6162314E-1,-1.1041117E0,9.421201E-1,-1.2807386E-1,8.683308E-1,-1.1981934E0,1.0964272E0,-1.122373E-1,1.2651858E-1,-2.644453E-2,-1.2478311E0,7.612902E-1,3.6700848E-1,1.259684E0,-1.2530986E0,-3.339154E-2,-1.4364392E-3,1.04411915E-1,-1.3069953E-1,1.17410176E-1,1.2908004E-1,-1.6168524E-2,-1.2588088E-1,-3.5772875E-2],"categories":[],"categories_nodes":[],"categories_segments":[],"categories_sizes":[],"default_left":[0,0,0,0,0,0,0,0,0,0,0,0,0,0,0,0,0,0,0,0,0,0,0,0,0,0,0],"id":7,"left_children":[1,3,-1,5,7,9,-1,11,13,15,-1,-1,-1,17,19,21,23,25,-1,-1,-1,-1,-1,-1,-1,-1,-1],"loss_changes":[2.5827493E2,1.341903E2,0E0,9.930533E1,3.0695114E1,2.5632835E1,0E0,3.8658013E0,1.5826263E1,8.085304E0,0E0,0E0,0E0,3.0148315E-1,9.802215E-1,2.117707E1,2.7845688E0,3.0804443E-1,0E0,0E0,0E0,0E0,0E0,0E0,0E0,0E0,0E0],"parents":[2147483647,0,0,1,1,3,3,4,4,5,5,7,7,8,8,9,9,13,13,14,14,15,15,16,16,17,17],"right_children":[2,4,-1,6,8,10,-1,12,14,16,-1,-1,-1,18,20,22,24,26,-1,-1,-1,-1,-1,-1,-1,-1,-1],"split_conditions":[1.4651527E0,-5.9750694E-1,1.352397E-1,-4.2641157E-1,-4.282702E-1,-2.303808E-1,-1.2807386E-1,-1.5273234E-1,3.3862543E0,1.733618E-3,-1.122373E-1,1.2651858E-1,-2.644453E-2,1.0550455E1,-1.3041274E-1,-2.3294033E-1,-2.2244626E-1,4.427683E0,-3.339154E-2,-1.4364392E-3,1.04411915E-1,-1.3069953E-1,1.17410176E-1,1.2908004E-1,-1.6168524E-2,-1.2588088E-1,-3.5772875E-2],"split_indices":[13,40,0,0,0,67,0,37,27,34,0,0,0,24,24,67,26,70,0,0,0,0,0,0,0,0,0],"split_type":[0,0,0,0,0,0,0,0,0,0,0,0,0,0,0,0,0,0,0,0,0,0,0,0,0,0,0],"sum_hessian":[3.6042343E2,2.6069754E2,9.972591E1,1.0189507E2,1.5880246E2,7.560031E1,2.6294762E1,6.855069E0,1.5194739E2,7.077897E1,4.821343E0,4.989993E0,1.8650758E0,1.4854756E2,3.399827E0,1.3538418E1,5.724055E1,1.4732729E2,1.2202824E0,1.1620721E0,2.237755E0,4.202522E0,9.3358965E0,5.6104183E1,1.1363652E0,1.4599031E2,1.336972E0],"tree_param":{"num_deleted":"0","num_feature":"78","num_nodes":"27","size_leaf_vector":"1"}},{"base_weights":[-1.987779E-2,-5.475831E-1,1.3017863E-1,3.0700496E-1,-1.092696E0,9.089924E-1,-1.2369692E-1,6.986422E-1,-1.1775653E0,-1.5383627E-1,1.1763761E0,-8.607865E-2,1.1363032E-1,-1.2250338E0,6.8805337E-1,9.841699E-1,-9.024637E-1,1.2165084E0,-4.36912E-2,-1.2446761E-1,-6.769405E-1,9.484157E-2,9.188215E-3,1.2372496E-1,-7.7749663E-3,-1.0695181E-1,2.1310594E-2,7.156237E-2,1.2928088E-1,7.3666565E-2,-1.046402E-1],"categories":[],"categories_nodes":[],"categories_segments":[],"categories_sizes":[],"default_left":[0,0,0,0,0,0,0,0,0,0,0,0,0,0,0,0,0,0,0,0,0,0,0,0,0,0,0,0,0,0,0],"id":8,"left_children":[1,3,-1,5,7,9,-1,11,13,15,17,-1,-1,19,21,23,25,27,-1,-1,29,-1,-1,-1,-1,-1,-1,-1,-1,-1,-1],"loss_changes":[2.333475E2,1.1170928E2,0E0,8.839031E1,2.3047714E1,1.9541786E1,0E0,5.9196997E0,1.323642E1,1.3308339E1,4.063301E0,0E0,0E0,6.3056946E-1,5.512495E-1,1.7794414E0,1.9639468E0,1.1190796E0,0E0,0E0,4.388389E0,0E0,0E0,0E0,0E0,0E0,0E0,0E0,0E0,0E0,0E0],"parents":[2147483647,0,0,1,1,3,3,4,4,5,5,7,7,8,8,9,9,10,10,13,13,14,14,15,15,16,16,17,17,20,20],"right_children":[2,4,-1,6,8,10,-1,12,14,16,18,-1,-1,20,22,24,26,28,-1,-1,30,-1,-1,-1,-1,-1,-1,-1,-1,-1,-1],"split_conditions":[1.0003581E0,-6.1285424E-1,1.3017863E-1,-4.2641157E-1,-4.282702E-1,-2.8434548E-1,-1.2369692E-1,-6.456276E-2,3.3862543E0,-2.8491956E-1,-4.4655135E-1,-8.607865E-2,1.1363032E-1,9.633603E-1,-2.849206E-1,6.9577003E0,1.7355789E-3,3.541389E-3,-4.36912E-2,-1.2446761E-1,-7.8033553E-3,9.484157E-2,9.188215E-3,1.2372496E-1,-7.7749663E-3,-1.0695181E-1,2.1310594E-2,7.156237E-2,1.2928088E-1,7.3666565E-2,-1.046402E-1],"split_indices":[13,52,0,0,0,15,0,19,27,15,66,0,0,8,15,19,34,69,0,0,3,0,0,0,0,0,0,0,0,0,0],"split_type":[0,0,0,0,0,0,0,0,0,0,0,0,0,0,0,0,0,0,0,0,0,0,0,0,0,0,0,0,0,0,0],"sum_hessian":[3.325507E2,2.3807812E2,9.447258E1,9.288953E1,1.451886E2,6.712795E1,2.5761574E1,6.240405E0,1.389482E2,1.3578635E1,5.3549316E1,1.15571E0,5.084695E0,1.3583539E2,3.112805E0,5.263235E0,8.3154E0,5.248953E1,1.0597891E0,1.2990886E2,5.9265323E0,1.7553546E0,1.3574502E0,4.1169624E0,1.1462727E0,7.2682714E0,1.0471288E0,8.310841E0,4.4178688E1,1.0220706E0,4.904462E0],"tree_param":{"num_deleted":"0","num_feature":"78","num_nodes":"31","size_leaf_vector":"1"}},{"base_weights":[-7.8037553E-3,7.9717374E-1,-7.696764E-1,1.1347557E0,-1.22257136E-1,-9.243259E-1,1.19197965E-1,-1.1898714E-1,1.2389116E0,8.250183E-1,-1.0468057E0,1.2583312E-1,-6.376341E-2,-8.717961E-2,1.1603623E-1,-1.1736337E0,9.533487E-1,-1.1928626E0,-5.167429E-1,-2.8211897E-2,1.2010294E-1,-1.1992172E-1,-2.0989465E-2,7.502879E-2,-9.740566E-2],"categories":[],"categories_nodes":[],"categories_segments":[],"categories_sizes":[],"default_left":[0,0,0,0,0,0,0,0,0,0,0,0,0,0,0,0,0,0,0,0,0,0,0,0,0],"id":9,"left_children":[1,3,5,7,-1,9,-1,-1,11,13,15,-1,-1,-1,-1,17,19,21,23,-1,-1,-1,-1,-1,-1],"loss_changes":[1.997121E2,1.0935212E2,5.185367E1,3.4448547E1,0E0,3.420935E1,0E0,0E0,5.570282E0,7.124434E0,3.8127487E1,0E0,0E0,0E0,0E0,1.1221619E0,3.1696243E0,5.788269E-1,4.0212526E0,0E0,0E0,0E0,0E0,0E0,0E0],"parents":[2147483647,0,0,1,1,2,2,3,3,5,5,8,8,9,9,10,10,15,15,16,16,17,17,18,18],"right_children":[2,4,6,8,-1,10,-1,-1,12,14,16,-1,-1,-1,-1,18,20,22,24,-1,-1,-1,-1,-1,-1],"split_conditions":[-1.5282159E-1,-4.2641157E-1,1.5300149E0,1.7340101E-3,-1.22257136E-1,-4.282702E-1,1.19197965E-1,-1.1898714E-1,8.73591E-2,3.541389E-3,4.245349E0,1.2583312E-1,-6.376341E-2,-8.717961E-2,1.1603623E-1,4.1822476E0,-4.1573358E-1,1.0003581E0,-4.2641157E-1,-2.8211897E-2,1.2010294E-1,-1.1992172E-1,-2.0989465E-2,7.502879E-2,-9.740566E-2],"split_indices":[37,0,13,34,0,0,0,0,7,69,43,0,0,0,0,44,23,13,0,0,0,0,0,0,0],"split_type":[0,0,0,0,0,0,0,0,0,0,0,0,0,0,0,0,0,0,0,0,0,0,0,0,0],"sum_hessian":[3.2363995E2,1.5734569E2,1.6629425E2,1.3518835E2,2.2157337E1,1.5463242E2,1.1661825E1,5.3503933E0,1.2983797E2,9.742809E0,1.4488962E2,1.2883417E2,1.0038022E0,1.3437636E0,8.399046E0,1.366387E2,8.250906E0,1.3195998E2,4.6787305E0,1.3546536E0,6.8962517E0,1.3089378E2,1.0661923E0,1.0709422E0,3.6077883E0],"tree_param":{"num_deleted":"0","num_feature":"78","num_nodes":"25","size_leaf_vector":"1"}},{"base_weights":[-1.0674374E-2,7.523137E-1,-7.502306E-1,1.1004578E0,-1.1999922E-1,-9.058881E-1,1.0505908E0,-1.15888014E-1,1.2053038E0,5.980575E-1,-1.0169228E0,1.14024095E-1,2.2198227E-3,-1.0602057E-2,1.2235228E0,-8.363857E-2,9.035465E-1,-5.007128E-1,-1.159134E0,1.246112E-1,6.7777884E-1,4.200921E-1,1.12296484E-1,-1.14710204E-1,8.578629E-1,-1.1815811E0,-5.211744E-2,-4.49147E-2,1.1602359E-1,-2.2108315E-2,8.4907465E-2,1.277599E-1,-7.796662E-2,-1.189849E-1,-4.0466074E-2,5.474885E-2,-6.2072534E-2],"categories":[],"categories_nodes":[],"categories_segments":[],"categories_sizes":[],"default_left":[0,0,0,0,0,0,0,0,0,0,0,0,0,0,0,0,0,0,0,0,0,0,0,0,0,0,0,0,0,0,0,0,0,0,0,0,0],"id":10,"left_children":[1,3,5,7,-1,9,11,-1,13,15,17,-1,-1,-1,19,-1,21,23,25,-1,27,29,-1,-1,31,33,35,-1,-1,-1,-1,-1,-1,-1,-1,-1,-1],"loss_changes":[1.668849E2,1.0026688E2,4.304747E1,3.078621E1,0E0,2.3780426E1,1.1189213E0,0E0,2.9740906E0,5.212331E0,8.933197E0,0E0,0E0,0E0,6.040039E-1,0E0,4.6866226E-1,2.711065E1,2.4443054E0,0E0,4.252449E0,1.3883669E0,0E0,0E0,7.9819546E0,1.5312195E-1,1.3798132E0,0E0,0E0,0E0,0E0,0E0,0E0,0E0,0E0,0E0,0E0],"parents":[2147483647,0,0,1,1,2,2,3,3,5,5,6,6,8,8,9,9,10,10,14,14,16,16,17,17,18,18,20,20,21,21,24,24,25,25,26,26],"right_children":[2,4,6,8,-1,10,12,-1,14,16,18,-1,-1,-1,20,-1,22,24,26,-1,28,30,-1,-1,32,34,36,-1,-1,-1,-1,-1,-1,-1,-1,-1,-1],"split_conditions":[-1.5282159E-1,-4.2641157E-1,1.402121E0,1.7340101E-3,-1.1999922E-1,-4.282702E-1,1.7406992E-3,-1.15888014E-1,-4.268364E-1,3.541389E-3,-5.4226047E-1,1.14024095E-1,2.2198227E-3,-1.0602057E-2,-1.3010369E-1,-8.363857E-2,-2.3193878E-1,-3.7833905E-1,1.1312461E0,1.246112E-1,-2.1968491E-1,-4.8450816E-1,1.12296484E-1,-1.14710204E-1,-4.2641157E-1,2.4700274E0,-2.0952118E-3,-4.49147E-2,1.1602359E-1,-2.2108315E-2,8.4907465E-2,1.277599E-1,-7.796662E-2,-1.189849E-1,-4.0466074E-2,5.474885E-2,-6.2072534E-2],"split_indices":[37,0,41,34,0,0,34,0,0,69,12,0,0,0,24,0,67,8,41,0,74,1,0,0,0,51,2,0,0,0,0,0,0,0,0,0,0],"split_type":[0,0,0,0,0,0,0,0,0,0,0,0,0,0,0,0,0,0,0,0,0,0,0,0,0,0,0,0,0,0,0,0,0,0,0,0,0],"sum_hessian":[2.93752E2,1.4457703E2,1.49175E2,1.2306741E2,2.1509615E1,1.3776405E2,1.1410943E1,5.0119147E0,1.180555E2,9.170128E0,1.2859392E2,1.0395919E1,1.0150242E0,1.5516964E0,1.165038E2,1.3049227E0,7.8652053E0,2.875122E1,9.9842705E1,1.1064086E2,5.8629355E0,3.3651621E0,4.500043E0,1.9587465E1,9.163754E0,9.77924E1,2.0503051E0,1.7782747E0,4.084661E0,1.5432259E0,1.8219364E0,7.4690633E0,1.6946908E0,9.623676E1,1.5556393E0,1.0160289E0,1.0342761E0],"tree_param":{"num_deleted":"0","num_feature":"78","num_nodes":"37","size_leaf_vector":"1"}},{"base_weights":[-1.693335E-3,-4.7761166E-1,1.1959635E0,2.7164704E-1,-9.8691237E-1,1.2063676E-1,2.5132183E-2,7.563656E-1,-1.14462435E-1,8.2956624E-1,-1.0748712E0,1.043803E0,-1.4437267E-1,1.0723376E-1,-2.4089848E-3,-3.423973E-2,-1.1459006E0,4.6349302E-1,1.1710806E0,-8.680221E-1,1.1521721E-1,-1.0430372E-1,9.36161E-1,-1.153298E-1,-2.3235234E-2,-1.0120964E-1,9.2891276E-2,1.1947884E-1,3.4843687E-2,-1.0905868E-1,1.9887282E-2,2.6218811E-2,1.0889214E-1],"categories":[],"categories_nodes":[],"categories_segments":[],"categories_sizes":[],"default_left":[0,0,0,0,0,0,0,0,0,0,0,0,0,0,0,0,0,0,0,0,0,0,0,0,0,0,0,0,0,0,0,0,0],"id":11,"left_children":[1,3,5,7,9,-1,-1,11,-1,13,15,17,19,-1,-1,21,23,25,27,29,-1,-1,31,-1,-1,-1,-1,-1,-1,-1,-1,-1,-1],"loss_changes":[1.6083678E2,7.732442E1,4.8545837E-1,5.7500988E1,2.0133636E1,0E0,0E0,1.6219845E1,0E0,1.2955441E0,8.483551E0,2.9413986E0,1.59117E1,0E0,0E0,9.197737E0,4.6124268E-1,7.904126E0,3.2543182E-1,2.7743502E0,0E0,0E0,2.0946598E-1,0E0,0E0,0E0,0E0,0E0,0E0,0E0,0E0,0E0,0E0],"parents":[2147483647,0,0,1,1,2,2,3,3,4,4,7,7,9,9,10,10,11,11,12,12,15,15,16,16,17,17,18,18,19,19,22,22],"right_children":[2,4,6,8,10,-1,-1,12,-1,14,16,18,20,-1,-1,22,24,26,28,30,-1,-1,32,-1,-1,-1,-1,-1,-1,-1,-1,-1,-1],"split_conditions":[1.0003581E0,-5.9750694E-1,-8.685597E-2,-4.2641157E-1,-4.282702E-1,1.2063676E-1,2.5132183E-2,-3.1163624E-1,-1.14462435E-1,-1.5274559E-1,-2.8492042E-1,1.733618E-3,-8.533627E-2,1.0723376E-1,-2.4089848E-3,-4.4411626E-1,2.4700274E0,2.2302934E-3,-6.4279065E-2,-2.4009464E-2,1.1521721E-1,-1.0430372E-1,-4.5324266E-1,-1.153298E-1,-2.3235234E-2,-1.0120964E-1,9.2891276E-2,1.1947884E-1,3.4843687E-2,-1.0905868E-1,1.9887282E-2,2.6218811E-2,1.0889214E-1],"split_indices":[13,40,70,0,0,0,0,16,0,37,15,34,74,0,0,66,51,35,19,24,0,0,52,0,0,0,0,0,0,0,0,0,0],"split_type":[0,0,0,0,0,0,0,0,0,0,0,0,0,0,0,0,0,0,0,0,0,0,0,0,0,0,0,0,0,0,0,0,0],"sum_hessian":[2.8017416E2,2.0093065E2,7.924351E1,8.149935E1,1.194313E2,7.81062E1,1.1373067E0,6.106561E1,2.0433746E1,5.1266747E0,1.1430463E2,4.6172523E1,1.48930855E1,3.7920754E0,1.3345994E0,7.39817E0,1.06906456E2,9.140212E0,3.703231E1,9.770385E0,5.1227E0,3.5906222E0,3.8075478E0,1.0578741E2,1.1190468E0,1.910016E0,7.230196E0,3.555527E1,1.4770421E0,8.065613E0,1.7047722E0,1.205457E0,2.6020908E0],"tree_param":{"num_deleted":"0","num_feature":"78","num_nodes":"33","size_leaf_vector":"1"}},{"base_weights":[-1.3225892E-2,7.038827E-1,-7.242219E-1,1.02499E0,-1.1406529E-1,-8.6949617E-1,9.485473E-1,-1.0861049E-1,1.1331065E0,6.670401E-1,-9.935618E-1,1.0739391E-1,-9.231802E-3,1.156432E0,-6.162426E-2,1.0914513E-1,1.7720515E-1,-1.0982419E0,6.423266E-1,1.171608E-1,1.1938613E-2,-1.1742132E-1,9.5284455E-2,-1.1110202E0,-1.3220521E-2,1.0577524E-1,-6.999665E-2,-1.1189573E-1,-3.9951447E-2],"categories":[],"categories_nodes":[],"categories_segments":[],"categories_sizes":[],"default_left":[0,0,0,0,0,0,0,0,0,0,0,0,0,0,0,0,0,0,0,0,0,0,0,0,0,0,0,0,0],"id":12,"left_children":[1,3,5,7,-1,9,11,-1,13,15,17,-1,-1,19,-1,-1,21,23,25,-1,-1,-1,-1,27,-1,-1,-1,-1,-1],"loss_changes":[1.3062245E2,7.672044E1,3.2084427E1,2.614824E1,0E0,2.3324623E1,1.5031176E0,0E0,4.97023E0,1.7773676E0,1.9610573E1,0E0,0E0,1.4861298E0,0E0,0E0,6.9831324E0,1.1385117E0,4.794569E0,0E0,0E0,0E0,0E0,1.325531E-1,0E0,0E0,0E0,0E0,0E0],"parents":[2147483647,0,0,1,1,2,2,3,3,5,5,6,6,8,8,9,9,10,10,13,13,16,16,17,17,18,18,23,23],"right_children":[2,4,6,8,-1,10,12,-1,14,16,18,-1,-1,20,-1,-1,22,24,26,-1,-1,-1,-1,28,-1,-1,-1,-1,-1],"split_conditions":[-1.5282159E-1,-4.2641157E-1,1.402121E0,1.7340101E-3,-1.1406529E-1,-4.282702E-1,1.7406992E-3,-1.0861049E-1,8.73591E-2,-3.1316662E-1,4.245349E0,1.0739391E-1,-9.231802E-3,6.9577003E0,-6.162426E-2,1.0914513E-1,-3.0969635E-1,1.3637671E0,-4.2641157E-1,1.171608E-1,1.1938613E-2,-1.1742132E-1,9.5284455E-2,2.4700274E0,-1.3220521E-2,1.0577524E-1,-6.999665E-2,-1.1189573E-1,-3.9951447E-2],"split_indices":[37,0,41,34,0,0,34,0,7,16,43,0,0,19,0,0,16,10,0,0,0,0,0,51,0,0,0,0,0],"split_type":[0,0,0,0,0,0,0,0,0,0,0,0,0,0,0,0,0,0,0,0,0,0,0,0,0,0,0,0,0],"sum_hessian":[2.5419228E2,1.2655712E2,1.27635155E2,1.08170494E2,1.8386621E1,1.1787806E2,9.757098E0,4.8292103E0,1.03341286E2,8.479842E0,1.0939822E2,8.67969E0,1.0774076E0,1.0231596E2,1.0253246E0,3.8852854E0,4.5945573E0,1.03127754E2,6.270461E0,1.00712395E2,1.6035687E0,1.4880395E0,3.1065176E0,1.0163331E2,1.4944437E0,4.950358E0,1.3201034E0,9.994572E1,1.6875944E0],"tree_param":{"num_deleted":"0","num_feature":"78","num_nodes":"29","size_leaf_vector":"1"}},{"base_weights":[-1.697729E-2,-4.6686336E-1,1.1417813E0,2.602224E-1,-9.5859516E-1,1.1606856E-1,-2.5195696E-3,6.28716E-1,-7.107181E-1,-1.0127282E0,9.154969E-2,-1.1785227E-1,9.574729E-1,-1.0586413E0,6.850469E-1,-1.0869234E0,-6.088793E-1,-6.887451E-1,1.0075321E-1,-5.0482295E-2,1.1047177E0,-1.093614E-1,-3.519571E-2,8.968854E-2,1.2994679E-2,-1.12471364E-1,-6.3635844E-1,2.7284E-1,-1.05881356E-1,-1.03515506E-1,6.558346E-2,-8.003988E-2,7.5924255E-2,1.1419238E-1,2.1972E-2,8.386458E-2,-9.9735305E-2,-6.0443755E-2,1.08022906E-1],"categories":[],"categories_nodes":[],"categories_segments":[],"categories_sizes":[],"default_left":[0,0,0,0,0,0,0,0,0,0,0,0,0,0,0,0,0,0,0,0,0,0,0,0,0,0,0,0,0,0,0,0,0,0,0,0,0,0,0],"id":13,"left_children":[1,3,5,7,9,-1,-1,11,13,15,-1,17,19,21,23,25,27,29,-1,31,33,-1,-1,-1,-1,-1,35,37,-1,-1,-1,-1,-1,-1,-1,-1,-1,-1,-1],"loss_changes":[1.2537236E2,6.2177273E1,1.5131226E0,2.5730776E1,1.1431496E1,0E0,0E0,1.281604E1,1.0394347E1,2.3678055E0,0E0,1.1432208E1,5.40514E0,1.8709183E-2,4.2202377E-1,7.1698E-1,7.416471E0,6.1204233E0,0E0,3.9780655E0,7.8606033E-1,0E0,0E0,0E0,0E0,0E0,5.5297604E0,5.5158377E0,0E0,0E0,0E0,0E0,0E0,0E0,0E0,0E0,0E0,0E0,0E0],"parents":[2147483647,0,0,1,1,2,2,3,3,4,4,7,7,8,8,9,9,11,11,12,12,13,13,14,14,15,15,16,16,17,17,19,19,20,20,26,26,27,27],"right_children":[2,4,6,8,10,-1,-1,12,14,16,-1,18,20,22,24,26,28,30,-1,32,34,-1,-1,-1,-1,-1,36,38,-1,-1,-1,-1,-1,-1,-1,-1,-1,-1,-1],"split_conditions":[1.0003581E0,-5.9750694E-1,2.6894383E0,-4.4655135E-1,3.3862543E0,1.1606856E-1,-2.5195696E-3,1.7338793E-3,-2.4009464E-2,1.4570978E0,9.154969E-2,-2.7859554E-1,-4.4813088E-1,2.253474E-3,-2.363092E-2,4.1822476E0,-4.002682E-1,-4.47736E-1,1.0075321E-1,-4.120055E-1,-3.1236923E-1,-1.093614E-1,-3.519571E-2,8.968854E-2,1.2994679E-2,-1.12471364E-1,-5.852575E-1,-1.647587E-3,-1.05881356E-1,-1.03515506E-1,6.558346E-2,-8.003988E-2,7.5924255E-2,1.1419238E-1,2.1972E-2,8.386458E-2,-9.9735305E-2,-6.0443755E-2,1.08022906E-1],"split_indices":[13,40,1,66,27,0,0,34,24,66,0,7,66,35,24,30,12,66,0,53,21,0,0,0,0,0,40,68,0,0,0,0,0,0,0,0,0,0,0],"split_type":[0,0,0,0,0,0,0,0,0,0,0,0,0,0,0,0,0,0,0,0,0,0,0,0,0,0,0,0,0,0,0,0,0,0,0,0,0,0,0],"sum_hessian":[2.384726E2,1.7220961E2,6.6262985E1,6.966789E1,1.0254172E2,6.521199E1,1.0509955E0,5.0756958E1,1.8910933E1,1.0010967E2,2.4320476E0,1.5713948E1,3.504301E1,1.5330918E1,3.5800142E0,8.314319E1,1.6966482E1,1.068273E1,5.0312185E0,4.5504355E0,3.0492573E1,1.4086281E1,1.2446371E0,2.1455185E0,1.4344956E0,7.532889E1,7.814297E0,5.8655615E0,1.1100922E1,8.677289E0,2.0054412E0,2.3684464E0,2.1819894E0,2.8983757E1,1.5088162E0,1.2762903E0,6.538007E0,2.9315841E0,2.9339774E0],"tree_param":{"num_deleted":"0","num_feature":"78","num_nodes":"39","size_leaf_vector":"1"}},{"base_weights":[-2.767103E-4,6.8249553E-1,-6.7410386E-1,9.8994315E-1,-1.0853391E-1,-8.192106E-1,8.0976194E-1,-1.00323334E-1,1.0803413E0,5.9740686E-1,-9.4815654E-1,1.0356759E-1,-5.6782283E-2,1.1404567E-1,1.6727331E-1,-7.312474E-2,8.839142E-2,-1.0502554E0,6.660776E-1,-5.185071E-1,6.0970134E-1,-1.0654995E0,-6.3658566E-3,-2.7524529E-2,9.860099E-2,1.3417566E-2,-8.9681014E-2,-2.0650871E-2,9.130859E-2,-1.0799495E-1,-3.9335582E-2],"categories":[],"categories_nodes":[],"categories_segments":[],"categories_sizes":[],"default_left":[0,0,0,0,0,0,0,0,0,0,0,0,0,0,0,0,0,0,0,0,0,0,0,0,0,0,0,0,0,0,0],"id":14,"left_children":[1,3,5,7,-1,9,11,-1,13,15,17,-1,-1,-1,19,-1,-1,21,23,25,27,29,-1,-1,-1,-1,-1,-1,-1,-1,-1],"loss_changes":[1.0161555E2,6.070188E1,2.4598797E1,1.8016556E1,0E0,1.915419E1,3.8263197E0,0E0,4.7702026E0,4.111622E0,1.6134895E1,0E0,0E0,0E0,2.365626E0,0E0,0E0,1.262764E0,2.1334975E0,9.078192E-1,1.3191041E0,4.2076874E-1,0E0,0E0,0E0,0E0,0E0,0E0,0E0,0E0,0E0],"parents":[2147483647,0,0,1,1,2,2,3,3,5,5,6,6,8,8,9,9,10,10,14,14,17,17,18,18,19,19,20,20,21,21],"right_children":[2,4,6,8,-1,10,12,-1,14,16,18,-1,-1,-1,20,-1,-1,22,24,26,28,30,-1,-1,-1,-1,-1,-1,-1,-1,-1],"split_conditions":[-1.5282159E-1,-4.2641157E-1,1.402121E0,1.7338793E-3,-1.0853391E-1,-4.282702E-1,1.7419357E-3,-1.00323334E-1,-6.4279065E-2,3.541389E-3,4.245349E0,1.0356759E-1,-5.6782283E-2,1.1404567E-1,-2.4360497E-3,-7.312474E-2,8.839142E-2,1.1312461E0,-1.3043123E-1,-4.8827475E-1,-2.1968491E-1,4.1822476E0,-6.3658566E-3,-2.7524529E-2,9.860099E-2,1.3417566E-2,-8.9681014E-2,-2.0650871E-2,9.130859E-2,-1.0799495E-1,-3.9335582E-2],"split_indices":[37,0,41,55,0,0,55,0,19,69,43,0,0,0,19,0,0,41,24,1,74,30,0,0,0,0,0,0,0,0,0],"split_type":[0,0,0,0,0,0,0,0,0,0,0,0,0,0,0,0,0,0,0,0,0,0,0,0,0,0,0,0,0,0,0],"sum_hessian":[2.188695E2,1.0870678E2,1.10162735E2,9.297699E1,1.5729789E1,1.0075761E2,9.40513E0,3.595798E0,8.9381195E1,8.103079E0,9.2654526E1,8.293286E0,1.1118445E0,8.36263E1,5.754893E0,1.1620212E0,6.941058E0,8.747141E1,5.1831107E0,2.1893532E0,3.5655398E0,8.6061676E1,1.409735E0,1.3501878E0,3.832923E0,1.0401368E0,1.1492164E0,1.0527072E0,2.5128326E0,8.365649E1,2.4051952E0],"tree_param":{"num_deleted":"0","num_feature":"78","num_nodes":"31","size_leaf_vector":"1"}},{"base_weights":[-2.0927858E-2,-4.3349937E-1,1.1176231E-1,2.3070435E-1,-9.0664107E-1,6.961838E-1,-1.069163E-1,3.7928247E-1,-9.838215E-1,-1.1094572E-1,9.515827E-1,-6.266172E-2,9.216744E-2,-1.037917E0,4.9465773E-1,-5.9817713E-1,9.790524E-2,3.7339088E-1,1.0776287E0,-1.0600402E0,1.8581958E-2,-7.813798E-4,7.2896056E-2,4.787256E-2,-7.9550326E-2,-8.879783E-2,8.912026E-2,3.191426E-2,1.10731125E-1,-2.5063341E-2,-1.06821515E-1],"categories":[],"categories_nodes":[],"categories_segments":[],"categories_sizes":[],"default_left":[0,0,0,0,0,0,0,0,0,0,0,0,0,0,0,0,0,0,0,0,0,0,0,0,0,0,0,0,0,0,0],"id":15,"left_children":[1,3,-1,5,7,9,-1,11,13,15,17,-1,-1,19,21,23,-1,25,27,29,-1,-1,-1,-1,-1,-1,-1,-1,-1,-1,-1],"loss_changes":[9.640419E1,4.7539295E1,0E0,3.9135773E1,9.12252E0,9.861301E0,0E0,3.6946514E0,7.1871185E0,7.1026645E0,2.225235E0,0E0,0E0,2.3850327E0,4.321798E-1,2.3148396E0,0E0,6.0056896E0,3.0111313E-1,2.5852966E-1,0E0,0E0,0E0,0E0,0E0,0E0,0E0,0E0,0E0,0E0,0E0],"parents":[2147483647,0,0,1,1,3,3,4,4,5,5,7,7,8,8,9,9,10,10,13,13,14,14,15,15,17,17,18,18,19,19],"right_children":[2,4,-1,6,8,10,-1,12,14,16,18,-1,-1,20,22,24,-1,26,28,30,-1,-1,-1,-1,-1,-1,-1,-1,-1,-1,-1],"split_conditions":[1.5300149E0,-6.1285424E-1,1.1176231E-1,-4.2641157E-1,-4.282702E-1,-2.8434548E-1,-1.069163E-1,-1.3043623E-1,3.3862543E0,1.21029064E-1,1.733618E-3,-6.266172E-2,9.216744E-2,1.0003581E0,-1.3041274E-1,-4.4918388E-1,9.790524E-2,2.2302934E-3,-4.486574E-1,-2.7089173E-1,1.8581958E-2,-7.813798E-4,7.2896056E-2,4.787256E-2,-7.9550326E-2,-8.879783E-2,8.912026E-2,3.191426E-2,1.10731125E-1,-2.5063341E-2,-1.06821515E-1],"split_indices":[13,52,0,0,0,15,0,24,27,76,34,0,0,13,24,66,0,35,66,36,0,0,0,0,0,0,0,0,0,0,0],"split_type":[0,0,0,0,0,0,0,0,0,0,0,0,0,0,0,0,0,0,0,0,0,0,0,0,0,0,0,0,0,0,0],"sum_hessian":[2.0320016E2,1.4960701E2,5.3593155E1,6.2450466E1,8.715655E1,4.6325745E1,1.6124722E1,4.713272E0,8.2443275E1,1.1271224E1,3.505452E1,1.5967375E0,3.1165345E0,7.982073E1,2.6225443E0,8.101189E0,3.1700354E0,6.9833226E0,2.8071198E1,7.853471E1,1.2860184E0,1.1414059E0,1.4811383E0,1.033705E0,7.0674834E0,1.8243675E0,5.158955E0,1.4997431E0,2.6571455E1,1.1018133E0,7.74329E1],"tree_param":{"num_deleted":"0","num_feature":"78","num_nodes":"31","size_leaf_vector":"1"}},{"base_weights":[1.9420151E-3,-4.1007152E-1,1.1033149E-1,2.9401055E-1,-9.0454525E-1,7.337288E-1,-1.0419271E-1,4.4179112E-1,-9.997936E-1,9.752327E-1,-6.5536425E-2,-5.958395E-2,9.4111405E-2,-1.0549239E0,5.8141995E-2,4.7871473E-1,1.09173894E-1,-6.296493E-1,9.6642114E-2,-1.0766475E0,-4.6167308E-1,-8.065336E-2,8.97853E-2,-9.1901116E-2,2.1359658E-2,-1.09156646E-1,-3.0203283E-2,2.8787648E-2,-7.8171894E-2],"categories":[],"categories_nodes":[],"categories_segments":[],"categories_sizes":[],"default_left":[0,0,0,0,0,0,0,0,0,0,0,0,0,0,0,0,0,0,0,0,0,0,0,0,0,0,0,0,0],"id":16,"left_children":[1,3,-1,5,7,9,-1,11,13,15,17,-1,-1,19,-1,21,-1,23,-1,25,27,-1,-1,-1,-1,-1,-1,-1,-1],"loss_changes":[8.513536E1,4.7802322E1,0E0,3.4298477E1,1.0758896E1,8.467411E0,0E0,3.6742644E0,7.1901245E0,1.4150524E0,7.034875E0,0E0,0E0,4.4706726E-1,0E0,5.1128902E0,0E0,2.0856202E0,0E0,4.7833252E-1,1.2658122E0,0E0,0E0,0E0,0E0,0E0,0E0,0E0,0E0],"parents":[2147483647,0,0,1,1,3,3,4,4,5,5,7,7,8,8,9,9,10,10,13,13,15,15,17,17,19,19,20,20],"right_children":[2,4,-1,6,8,10,-1,12,14,16,18,-1,-1,20,-1,22,-1,24,-1,26,28,-1,-1,-1,-1,-1,-1,-1,-1],"split_conditions":[1.4651527E0,-6.1285424E-1,1.1033149E-1,-4.2641157E-1,-4.282702E-1,-3.113027E-1,-1.0419271E-1,-1.3043623E-1,3.3862543E0,1.733618E-3,-8.533627E-2,-5.958395E-2,9.4111405E-2,1.164837E0,5.8141995E-2,2.2302934E-3,1.09173894E-1,-2.4009464E-2,9.6642114E-2,1.1312461E0,-4.2641157E-1,-8.065336E-2,8.97853E-2,-9.1901116E-2,2.1359658E-2,-1.09156646E-1,-3.0203283E-2,2.8787648E-2,-7.8171894E-2],"split_indices":[13,52,0,0,0,16,0,24,27,34,74,0,0,53,0,35,0,24,0,41,0,0,0,0,0,0,0,0,0],"split_type":[0,0,0,0,0,0,0,0,0,0,0,0,0,0,0,0,0,0,0,0,0,0,0,0,0,0,0,0,0],"sum_hessian":[1.8561647E2,1.355399E2,5.0076565E1,5.608532E1,7.945458E1,4.253566E1,1.354966E1,5.0093317E0,7.444525E1,3.2496456E1,1.0039205E1,1.5646262E0,3.4447055E0,7.225873E1,2.1865203E0,7.146961E0,2.5349495E1,6.743024E0,3.2961807E0,6.892019E1,3.3385417E0,1.5302687E0,5.6166925E0,4.9534025E0,1.7896216E0,6.721644E1,1.7037511E0,1.0290393E0,2.3095024E0],"tree_param":{"num_deleted":"0","num_feature":"78","num_nodes":"29","size_leaf_vector":"1"}},{"base_weights":[2.4324867E-3,-4.1298032E-1,1.0889585E-1,1.4337859E-1,-9.564866E-1,6.8530023E-1,-1.0515993E-1,3.1044415E-1,-1.0401487E0,9.17371E-1,1.0228644E-1,-7.423436E-2,8.404621E-2,-1.0697597E0,1.2254179E-2,1.0585316E0,-4.4095615E-1,-9.801175E-2,5.427159E-1,-1.0841515E-1,-2.6226953E-2,5.331499E-2,1.16614096E-1,1.08173005E-2,-7.012705E-2,7.8749426E-2,1.4307948E-2],"categories":[],"categories_nodes":[],"categories_segments":[],"categories_sizes":[],"default_left":[0,0,0,0,0,0,0,0,0,0,0,0,0,0,0,0,0,0,0,0,0,0,0,0,0,0,0],"id":17,"left_children":[1,3,-1,5,7,9,-1,11,13,15,17,-1,-1,19,-1,21,23,-1,25,-1,-1,-1,-1,-1,-1,-1,-1],"loss_changes":[7.893925E1,3.839627E1,0E0,4.177282E1,7.1205215E0,5.889061E0,0E0,3.2703671E0,2.2101974E0,6.507366E0,7.0704675E0,0E0,0E0,4.012146E-1,0E0,1.008316E0,6.007093E-1,0E0,9.0393806E-1,0E0,0E0,0E0,0E0,0E0,0E0,0E0,0E0],"parents":[2147483647,0,0,1,1,3,3,4,4,5,5,7,7,8,8,9,9,10,10,13,13,15,15,16,16,18,18],"right_children":[2,4,-1,6,8,10,-1,12,14,16,18,-1,-1,20,-1,22,24,-1,26,-1,-1,-1,-1,-1,-1,-1,-1],"split_conditions":[1.5300149E0,-5.4226047E-1,1.0889585E-1,-4.2641157E-1,-4.282702E-1,-6.4534575E-2,-1.0515993E-1,-4.3358377E-1,2.4700274E0,-1.280622E-1,1.733618E-3,-7.423436E-2,8.404621E-2,1.9309787E0,1.2254179E-2,3.5446044E-3,-2.3282905E-1,-9.801175E-2,-1.3010369E-1,-1.0841515E-1,-2.6226953E-2,5.331499E-2,1.16614096E-1,1.08173005E-2,-7.012705E-2,7.8749426E-2,1.4307948E-2],"split_indices":[13,54,0,0,0,19,0,1,51,24,34,0,0,76,0,69,67,0,24,0,0,0,0,0,0,0,0],"split_type":[0,0,0,0,0,0,0,0,0,0,0,0,0,0,0,0,0,0,0,0,0,0,0,0,0,0,0],"sum_hessian":[1.7289687E2,1.2552474E2,4.737212E1,6.239275E1,6.3131992E1,4.321933E1,1.917342E1,3.7427835E0,5.9389206E1,3.0503717E1,1.2715612E1,1.1191623E0,2.6236212E0,5.799221E1,1.3969965E0,2.7832052E1,2.671666E0,3.3231754E0,9.392437E0,5.6640106E1,1.3521061E0,5.7437515E0,2.20883E1,1.0471568E0,1.6245091E0,5.222882E0,4.1695547E0],"tree_param":{"num_deleted":"0","num_feature":"78","num_nodes":"27","size_leaf_vector":"1"}},{"base_weights":[-2.8482454E-2,-3.839356E-1,1.0263932E0,1.4698054E-1,-8.7754804E-1,1.0711037E-1,-9.871839E-3,5.9671396E-1,-1.03050664E-1,-3.5405245E-1,-1.06889986E-1,7.0563316E-1,-8.097355E-2,7.8113204E-1,-6.666101E-1,9.3841493E-1,2.1706331E-1,-3.358748E-2,1.2553768E-1,-8.305958E-1,5.11125E-2,1.0061314E-1,1.8406413E-2,-6.856867E-2,5.2857894E-2,6.0639273E-2,-1.0102735E-1],"categories":[],"categories_nodes":[],"categories_segments":[],"categories_sizes":[],"default_left":[0,0,0,0,0,0,0,0,0,0,0,0,0,0,0,0,0,0,0,0,0,0,0,0,0,0,0],"id":18,"left_children":[1,3,5,7,9,-1,-1,11,-1,13,-1,15,-1,17,19,21,23,-1,-1,25,-1,-1,-1,-1,-1,-1,-1],"loss_changes":[6.0636566E1,3.1812576E1,2.1564064E0,3.1914282E1,5.9117355E0,0E0,0E0,7.2202196E0,0E0,7.015195E0,0E0,4.438484E0,0E0,2.7589314E0,3.3006377E0,1.2116318E0,4.4324923E0,0E0,0E0,4.0860567E0,0E0,0E0,0E0,0E0,0E0,0E0,0E0],"parents":[2147483647,0,0,1,1,2,2,3,3,4,4,7,7,9,9,11,11,13,13,14,14,15,15,16,16,19,19],"right_children":[2,4,6,8,10,-1,-1,12,-1,14,-1,16,-1,18,20,22,24,-1,-1,26,-1,-1,-1,-1,-1,-1,-1],"split_conditions":[1.5430862E0,-3.387449E-1,8.337235E-2,-4.2641157E-1,-6.034455E-2,1.0711037E-1,-9.871839E-3,-2.3149365E-1,-1.03050664E-1,-4.7085702E-1,-1.06889986E-1,-6.453824E-2,-8.097355E-2,-2.8534216E-1,1.0579437E0,-3.799635E-1,1.733618E-3,-3.358748E-2,1.2553768E-1,-4.282702E-1,5.11125E-2,1.0061314E-1,1.8406413E-2,-6.856867E-2,5.2857894E-2,6.0639273E-2,-1.0102735E-1],"split_indices":[41,6,4,0,14,0,0,67,0,10,0,19,0,6,41,22,34,0,0,0,0,0,0,0,0,0,0],"split_type":[0,0,0,0,0,0,0,0,0,0,0,0,0,0,0,0,0,0,0,0,0,0,0,0,0,0,0],"sum_hessian":[1.5966428E2,1.1989892E2,3.9765358E1,5.8104992E1,6.1793922E1,3.82917E1,1.47366E0,4.2402767E1,1.5702225E1,1.7304089E1,4.4489834E1,3.9817482E1,2.585286E0,3.4121757E0,1.3891912E1,2.6344679E1,1.3472804E1,1.103896E0,2.3082798E0,1.24527645E1,1.4391484E0,2.38683E1,2.4763784E0,3.148255E0,1.0324549E1,1.1200634E0,1.1332701E1],"tree_param":{"num_deleted":"0","num_feature":"78","num_nodes":"27","size_leaf_vector":"1"}},{"base_weights":[-1.2529209E-2,-3.9882052E-1,1.06327154E-1,1.4571635E-1,-9.668799E-1,6.5273064E-1,-1.0268503E-1,2.6390445E-1,-1.0494293E0,-4.7090594E-2,8.5573363E-1,-6.833302E-2,7.846011E-2,-1.064445E-1,-1.5399952E-2,5.929729E-1,-9.393468E-2,1.0895644E0,-3.1362474E-2,-6.767807E-2,9.667819E-2,3.8410373E-2,1.12326704E-1,-1.0330482E-1,7.8466356E-2],"categories":[],"categories_nodes":[],"categories_segments":[],"categories_sizes":[],"default_left":[0,0,0,0,0,0,0,0,0,0,0,0,0,0,0,0,0,0,0,0,0,0,0,0,0],"id":19,"left_children":[1,3,-1,5,7,9,-1,11,13,15,17,-1,-1,-1,-1,19,-1,21,23,-1,-1,-1,-1,-1,-1],"loss_changes":[6.26514E1,3.444687E1,0E0,3.485066E1,5.8051147E0,5.829397E0,0E0,2.6170652E0,5.243721E-1,6.3311067E0,6.597048E0,0E0,0E0,0E0,0E0,3.7396202E0,0E0,1.6453552E-1,7.0000052E0,0E0,0E0,0E0,0E0,0E0,0E0],"parents":[2147483647,0,0,1,1,3,3,4,4,5,5,7,7,8,8,9,9,10,10,15,15,17,17,18,18],"right_children":[2,4,-1,6,8,10,-1,12,14,16,18,-1,-1,-1,-1,20,-1,22,24,-1,-1,-1,-1,-1,-1],"split_conditions":[1.5300149E0,-5.4226047E-1,1.06327154E-1,-4.2641157E-1,-4.282702E-1,1.733618E-3,-1.0268503E-1,-4.3358377E-1,1.0003581E0,-6.453824E-2,-1.3030712E-1,-6.833302E-2,7.846011E-2,-1.064445E-1,-1.5399952E-2,2.2302934E-3,-9.393468E-2,-4.486574E-1,-1.00007564E-1,-6.767807E-2,9.667819E-2,3.8410373E-2,1.12326704E-1,-1.0330482E-1,7.8466356E-2],"split_indices":[13,12,0,0,0,34,0,1,13,19,24,0,0,0,0,35,0,66,24,0,0,0,0,0,0],"split_type":[0,0,0,0,0,0,0,0,0,0,0,0,0,0,0,0,0,0,0,0,0,0,0,0,0],"sum_hessian":[1.4873885E2,1.0990439E2,3.883445E1,5.6493595E1,5.3410793E1,3.9749405E1,1.6744192E1,3.2190413E0,5.0191753E1,9.110478E0,3.0638926E1,1.03105E0,2.1879914E0,4.9178318E1,1.0134343E0,5.500265E0,3.6102138E0,2.4066872E1,6.5720544E0,1.0666324E0,4.433633E0,1.6625847E0,2.2404285E1,2.831002E0,3.7410524E0],"tree_param":{"num_deleted":"0","num_feature":"78","num_nodes":"25","size_leaf_vector":"1"}},{"base_weights":[8.583138E-3,-3.7722406E-1,1.05307095E-1,1.1800752E-1,-9.166784E-1,6.219452E-1,-1.0167288E-1,3.4367225E-1,-1.0093538E0,-4.0724155E-2,8.229124E-1,6.3381605E-2,-5.423541E-4,-1.0313013E0,-6.4593367E-3,-5.846153E-1,8.8386916E-2,1.0627202E-1,-9.381431E-2,-1.2298784E-2,-1.0517243E-1,-1.11101665E-1,2.396163E-2,-6.7620434E-2,8.147957E-2],"categories":[],"categories_nodes":[],"categories_segments":[],"categories_sizes":[],"default_left":[0,0,0,0,0,0,0,0,0,0,0,0,0,0,0,0,0,0,0,0,0,0,0,0,0],"id":20,"left_children":[1,3,-1,5,7,9,-1,11,13,15,17,-1,-1,19,-1,21,-1,-1,23,-1,-1,-1,-1,-1,-1],"loss_changes":[5.678102E1,2.7602268E1,0E0,3.1821722E1,6.113697E0,5.146039E0,0E0,4.2152616E-1,8.9227295E-1,5.488207E0,6.585705E0,0E0,0E0,7.077904E-1,0E0,3.2280314E0,0E0,0E0,4.274417E0,0E0,0E0,0E0,0E0,0E0,0E0],"parents":[2147483647,0,0,1,1,3,3,4,4,5,5,7,7,8,8,9,9,10,10,13,13,15,15,18,18],"right_children":[2,4,-1,6,8,10,-1,12,14,16,18,-1,-1,20,-1,22,-1,-1,24,-1,-1,-1,-1,-1,-1],"split_conditions":[1.5300149E0,-5.4226047E-1,1.05307095E-1,-4.2641157E-1,-4.282702E-1,1.733618E-3,-1.0167288E-1,-6.0371E-2,1.0003581E0,-3.4241545E-1,-1.3010369E-1,6.3381605E-2,-5.423541E-4,-8.991633E-2,-6.4593367E-3,-2.3193878E-1,8.8386916E-2,1.0627202E-1,-2.1968491E-1,-1.2298784E-2,-1.0517243E-1,-1.11101665E-1,2.396163E-2,-6.7620434E-2,8.147957E-2],"split_indices":[13,12,0,0,0,34,0,14,13,42,24,0,0,4,0,67,0,0,74,0,0,0,0,0,0],"split_type":[0,0,0,0,0,0,0,0,0,0,0,0,0,0,0,0,0,0,0,0,0,0,0,0,0],"sum_hessian":[1.3892023E2,1.0191446E2,3.7005764E1,5.3542477E1,4.8371983E1,3.738961E1,1.6152866E1,3.1277218E0,4.524426E1,8.886061E0,2.850355E1,1.2626787E0,1.865043E0,4.412754E1,1.1167201E0,5.826395E0,3.059666E0,2.2467094E1,6.0364547E0,1.1247886E0,4.300275E1,3.3432574E0,2.4831374E0,3.8344662E0,2.2019887E0],"tree_param":{"num_deleted":"0","num_feature":"78","num_nodes":"25","size_leaf_vector":"1"}},{"base_weights":[-3.902468E-2,-4.1941312E-1,1.0409351E-1,5.1942904E-2,-8.928005E-1,4.713363E-1,-9.96895E-2,-9.728984E-1,4.659907E-3,9.4109184E-1,5.117845E-2,1.5449314E-2,-1.018313E0,6.340004E-2,-7.650568E-2,1.0183831E-1,1.2168999E-2,8.595132E-2,-1.8348707E-1,-1.03928864E-1,-4.1462627E-1,-3.5564624E-2,7.5123124E-2,-5.491976E-2,-7.2320425E-3],"categories":[],"categories_nodes":[],"categories_segments":[],"categories_sizes":[],"default_left":[0,0,0,0,0,0,0,0,0,0,0,0,0,0,0,0,0,0,0,0,0,0,0,0,0],"id":21,"left_children":[1,3,-1,5,7,9,-1,11,13,15,17,-1,19,-1,-1,-1,-1,-1,21,-1,23,-1,-1,-1,-1],"loss_changes":[5.2361317E1,2.106264E1,0E0,2.1645332E1,3.3864975E0,6.873214E0,0E0,2.369007E0,2.8345096E0,9.210081E-1,3.8696456E0,0E0,9.655762E-2,0E0,0E0,0E0,0E0,0E0,2.8402762E0,0E0,1.0135585E-1,0E0,0E0,0E0,0E0],"parents":[2147483647,0,0,1,1,3,3,4,4,5,5,7,7,8,8,9,9,10,10,12,12,18,18,20,20],"right_children":[2,4,-1,6,8,10,-1,12,14,16,18,-1,20,-1,-1,-1,-1,-1,22,-1,24,-1,-1,-1,-1],"split_conditions":[1.5300149E0,-3.3493042E-1,1.0409351E-1,-4.2641157E-1,3.3574745E-1,-6.455748E-2,-9.96895E-2,-4.282702E-1,-4.2641157E-1,-3.5018834E-1,-4.4918388E-1,1.5449314E-2,1.164837E0,6.340004E-2,-7.650568E-2,1.0183831E-1,1.2168999E-2,8.595132E-2,-2.1968491E-1,-1.03928864E-1,-6.456219E-2,-3.5564624E-2,7.5123124E-2,-5.491976E-2,-7.2320425E-3],"split_indices":[13,6,0,0,22,19,0,0,0,6,66,0,8,0,0,0,0,0,74,0,19,0,0,0,0],"split_type":[0,0,0,0,0,0,0,0,0,0,0,0,0,0,0,0,0,0,0,0,0,0,0,0,0],"sum_hessian":[1.25397766E2,9.318674E1,3.2211025E1,4.713965E1,4.604709E1,3.406776E1,1.3071889E1,4.2196976E1,3.8501155E0,1.5499152E1,1.8568607E1,1.54099E0,4.0655987E1,2.2152166E0,1.6348989E0,1.3941281E1,1.5578707E0,3.57868E0,1.4989928E1,3.8593456E1,2.0625303E0,1.3181615E1,1.8083136E0,1.0466517E0,1.0158784E0],"tree_param":{"num_deleted":"0","num_feature":"78","num_nodes":"25","size_leaf_vector":"1"}},{"base_weights":[-4.8535615E-2,-4.224475E-1,1.0316167E-1,4.1455235E-2,-8.852753E-1,4.2267096E-1,-9.788571E-2,1.2040239E-2,-9.620081E-1,5.858234E-1,-5.241591E-1,-7.061399E-2,5.5867534E-2,3.537772E-3,-1.0126783E0,9.841595E-2,3.257198E-1,4.856484E-2,-1.0060578E-1,-1.0362115E-1,-2.7972942E-2,-9.102988E-3,9.606882E-2],"categories":[],"categories_nodes":[],"categories_segments":[],"categories_sizes":[],"default_left":[0,0,0,0,0,0,0,0,0,0,0,0,0,0,0,0,0,0,0,0,0,0,0],"id":22,"left_children":[1,3,-1,5,7,9,-1,11,13,15,17,-1,-1,-1,19,-1,21,-1,-1,-1,-1,-1,-1],"loss_changes":[4.7987732E1,1.8967562E1,0E0,1.7912788E1,3.0536118E0,5.4744554E0,0E0,2.1486037E0,2.0933723E0,2.6847277E0,3.1380608E0,0E0,0E0,0E0,3.7901306E-1,0E0,5.126539E0,0E0,0E0,0E0,0E0,0E0,0E0],"parents":[2147483647,0,0,1,1,3,3,4,4,5,5,7,7,8,8,9,9,10,10,14,14,16,16],"right_children":[2,4,-1,6,8,10,-1,12,14,16,18,-1,-1,-1,20,-1,22,-1,-1,-1,-1,-1,-1],"split_conditions":[1.5300149E0,-3.387449E-1,1.0316167E-1,-4.2641157E-1,-2.8492025E-1,-2.3282905E-1,-9.788571E-2,-4.4761777E-1,-4.282702E-1,-4.883807E-1,-4.8837882E-1,-7.061399E-2,5.5867534E-2,3.537772E-3,3.5174486E-1,9.841595E-2,-3.4241545E-1,4.856484E-2,-1.0060578E-1,-1.0362115E-1,-2.7972942E-2,-9.102988E-3,9.606882E-2],"split_indices":[13,6,0,0,15,67,0,66,0,1,1,0,0,0,67,0,42,0,0,0,0,0,0],"split_type":[0,0,0,0,0,0,0,0,0,0,0,0,0,0,0,0,0,0,0,0,0,0,0],"sum_hessian":[1.1673723E2,8.717063E1,2.9566599E1,4.398945E1,4.3181183E1,3.2450737E1,1.1538711E1,3.4681075E0,3.9713078E1,2.8006151E1,4.444584E0,1.3727576E0,2.0953498E0,1.9345933E0,3.7778484E1,9.963624E0,1.8042528E1,1.4333179E0,3.011266E0,3.620236E1,1.5761256E0,1.1410257E1,6.6322713E0],"tree_param":{"num_deleted":"0","num_feature":"78","num_nodes":"23","size_leaf_vector":"1"}},{"base_weights":[2.1597967E-2,-3.157414E-1,1.0222454E-1,1.4771841E-1,-8.569102E-1,5.828026E-1,-9.786293E-2,2.4908604E-1,-9.443742E-1,-6.684842E-2,7.831315E-1,-1.2454329E-3,4.423814E-2,-9.907902E-1,2.9417364E-2,-5.672527E-1,8.21312E-2,9.3747276E-1,2.468484E-1,-1.0297892E-1,-2.8753598E-4,-1.04998246E-1,5.175454E-2,1.4130442E-2,1.0482973E-1,-7.768588E-2,9.041428E-2],"categories":[],"categories_nodes":[],"categories_segments":[],"categories_sizes":[],"default_left":[0,0,0,0,0,0,0,0,0,0,0,0,0,0,0,0,0,0,0,0,0,0,0,0,0,0,0],"id":23,"left_children":[1,3,-1,5,7,9,-1,11,13,15,17,-1,-1,19,-1,21,-1,23,25,-1,-1,-1,-1,-1,-1,-1,-1],"loss_changes":[3.796891E1,2.1237473E1,0E0,2.320787E1,4.005678E0,4.4705877E0,0E0,1.899208E-1,2.379982E0,4.4314666E0,1.9227934E0,0E0,0E0,1.3549843E0,0E0,3.8417807E0,0E0,1.60355E0,5.529467E0,0E0,0E0,0E0,0E0,0E0,0E0,0E0,0E0],"parents":[2147483647,0,0,1,1,3,3,4,4,5,5,7,7,8,8,9,9,10,10,13,13,15,15,17,17,18,18],"right_children":[2,4,-1,6,8,10,-1,12,14,16,18,-1,-1,20,-1,22,-1,24,26,-1,-1,-1,-1,-1,-1,-1,-1],"split_conditions":[1.5300149E0,-5.4226047E-1,1.0222454E-1,-4.2641157E-1,-4.282702E-1,1.733618E-3,-9.786293E-2,1.9254468E-2,2.4700274E0,-5.1846963E-1,-4.0179795E-1,-1.2454329E-3,4.423814E-2,1.9642258E0,2.9417364E-2,6.4915396E-2,8.21312E-2,-4.486574E-1,-2.1968491E-1,-1.0297892E-1,-2.8753598E-4,-1.04998246E-1,5.175454E-2,1.4130442E-2,1.0482973E-1,-7.768588E-2,9.041428E-2],"split_indices":[13,12,0,0,0,34,0,3,51,41,1,0,0,74,0,37,0,66,74,0,0,0,0,0,0,0,0],"split_type":[0,0,0,0,0,0,0,0,0,0,0,0,0,0,0,0,0,0,0,0,0,0,0,0,0,0,0],"sum_hessian":[1.1052504E2,8.317086E1,2.7354185E1,4.519374E1,3.7977116E1,3.2948868E1,1.2244873E1,2.6477685E0,3.5329346E1,7.922648E0,2.502622E1,1.5228409E0,1.1249278E0,3.424598E1,1.0833683E0,5.2986298E0,2.6240182E0,1.8852432E1,6.173787E0,3.2904644E1,1.341335E0,3.6890948E0,1.6095347E0,2.5815427E0,1.627089E1,2.3429077E0,3.8308794E0],"tree_param":{"num_deleted":"0","num_feature":"78","num_nodes":"27","size_leaf_vector":"1"}},{"base_weights":[1.7412975E-2,3.4280458E-1,-1.00708954E-1,5.772556E-1,-8.218017E-1,1.3583516E-1,9.7416174E-1,-9.1914386E-2,1.2694693E-2,4.8829263E-1,-7.256696E-1,1.0743826E-1,8.980621E-2,-8.3144866E-2,6.890289E-1,2.8266812E-2,-9.452765E-2,-7.894009E-2,7.415244E-2,7.62823E-2,-2.1684486E-2],"categories":[],"categories_nodes":[],"categories_segments":[],"categories_sizes":[],"default_left":[0,0,0,0,0,0,0,0,0,0,0,0,0,0,0,0,0,0,0,0,0],"id":24,"left_children":[1,3,-1,5,7,9,11,-1,-1,13,15,-1,17,-1,19,-1,-1,-1,-1,-1,-1],"loss_changes":[3.431393E1,2.1793732E1,0E0,1.1358034E1,1.3631887E0,1.0135459E1,2.949833E0,0E0,0E0,6.7873287E0,2.427256E0,0E0,3.21532E0,0E0,1.5630531E0,0E0,0E0,0E0,0E0,0E0,0E0],"parents":[2147483647,0,0,1,1,3,3,4,4,5,5,6,6,9,9,10,10,12,12,14,14],"right_children":[2,4,-1,6,8,10,12,-1,-1,14,16,-1,18,-1,20,-1,-1,-1,-1,-1,-1],"split_conditions":[-4.2168427E-1,-2.3115979E-1,-1.00708954E-1,-2.3294033E-1,1.164837E0,-6.0371228E-2,-2.324952E-1,-9.1914386E-2,1.2694693E-2,1.733618E-3,-4.9621093E-1,1.0743826E-1,-2.3160493E-1,-8.3144866E-2,-1.2462421E-1,2.8266812E-2,-9.452765E-2,-7.894009E-2,7.415244E-2,7.62823E-2,-2.1684486E-2],"split_indices":[38,67,0,67,8,14,67,0,0,34,39,0,67,0,29,0,0,0,0,0,0],"split_type":[0,0,0,0,0,0,0,0,0,0,0,0,0,0,0,0,0,0,0,0,0],"sum_hessian":[1.0089656E2,7.708047E1,2.3816088E1,6.4583305E1,1.2497162E1,3.1212479E1,3.337083E1,1.1362561E1,1.134601E0,2.2457792E1,8.754687E0,2.9780983E1,3.5898461E0,2.550107E0,1.9907684E1,1.5143417E0,7.240346E0,1.4382708E0,2.1515753E0,1.8554146E1,1.3535391E0],"tree_param":{"num_deleted":"0","num_feature":"78","num_nodes":"21","size_leaf_vector":"1"}},{"base_weights":[5.400444E-3,-3.3874735E-1,9.909703E-2,5.661606E-2,-9.031717E-1,5.1488966E-1,-9.7237445E-2,3.5624918E-2,-9.783461E-2,-1.7670731E-1,7.1572286E-1,6.450033E-2,-8.027742E-2,9.836228E-1,1.0985014E-1,1.05438404E-1,-9.1783743E-4,4.88812E-2,-9.8960266E-2],"categories":[],"categories_nodes":[],"categories_segments":[],"categories_sizes":[],"default_left":[0,0,0,0,0,0,0,0,0,0,0,0,0,0,0,0,0,0,0],"id":25,"left_children":[1,3,-1,5,7,9,-1,-1,-1,11,13,-1,-1,15,17,-1,-1,-1,-1],"loss_changes":[3.233803E1,1.5823006E1,0E0,2.0544033E1,3.1105251E0,4.3018527E0,0E0,0E0,0E0,4.4106073E0,3.7053814E0,0E0,0E0,1.1453114E0,3.954053E0,0E0,0E0,0E0,0E0],"parents":[2147483647,0,0,1,1,3,3,4,4,5,5,9,9,10,10,13,13,14,14],"right_children":[2,4,-1,6,8,10,-1,-1,-1,12,14,-1,-1,16,18,-1,-1,-1,-1],"split_conditions":[1.0003581E0,-5.223139E-1,9.909703E-2,-4.2641157E-1,-4.282702E-1,3.541389E-3,-9.7237445E-2,3.5624918E-2,-9.783461E-2,-4.4812283E-1,-6.452668E-2,6.450033E-2,-8.027742E-2,-2.3149365E-1,3.0601742E0,1.05438404E-1,-9.1783743E-4,4.88812E-2,-9.8960266E-2],"split_indices":[13,12,0,0,0,69,0,0,0,66,19,0,0,67,48,0,0,0,0],"split_type":[0,0,0,0,0,0,0,0,0,0,0,0,0,0,0,0,0,0,0],"sum_hessian":[9.335162E1,6.9677475E1,2.367415E1,4.150446E1,2.8173016E1,2.906128E1,1.2443182E1,1.3763081E0,2.6796707E1,6.567007E0,2.2494272E1,2.8267114E0,3.7402956E0,1.5165175E1,7.3290963E0,1.4098299E1,1.0668756E0,5.8634677E0,1.465629E0],"tree_param":{"num_deleted":"0","num_feature":"78","num_nodes":"19","size_leaf_vector":"1"}},{"base_weights":[1.0453511E-2,5.764124E-1,-5.461622E-1,8.1919765E-1,-9.117275E-2,-6.586651E-1,7.837633E-2,-8.17729E-2,9.524577E-1,2.6353776E-1,-7.9726535E-1,1.0270778E-1,1.9079652E-1,-2.7888986E-1,7.888692E-2,-9.2201453E-1,4.9811106E-2,-2.7360488E-2,6.984528E-2,6.2434167E-2,-9.454834E-2,-9.4519205E-2,-1.9675676E-2],"categories":[],"categories_nodes":[],"categories_segments":[],"categories_sizes":[],"default_left":[0,0,0,0,0,0,0,0,0,0,0,0,0,0,0,0,0,0,0,0,0,0,0],"id":26,"left_children":[1,3,5,7,-1,9,-1,-1,11,13,15,-1,17,19,-1,21,-1,-1,-1,-1,-1,-1,-1],"loss_changes":[2.8016033E1,1.6675728E1,7.226206E0,9.1619835E0,0E0,5.564659E0,0E0,0E0,1.8500824E0,1.993855E0,6.3845634E0,0E0,1.2379357E0,2.8791337E0,0E0,3.821392E-1,0E0,0E0,0E0,0E0,0E0,0E0,0E0],"parents":[2147483647,0,0,1,1,2,2,3,3,5,5,8,8,9,9,10,10,12,12,13,13,15,15],"right_children":[2,4,6,8,-1,10,-1,-1,12,14,16,-1,18,20,-1,22,-1,-1,-1,-1,-1,-1,-1],"split_conditions":[-1.5282159E-1,-4.2641157E-1,1.5300149E0,1.7340101E-3,-9.117275E-2,-4.282702E-1,7.837633E-2,-8.17729E-2,-6.4279065E-2,-1.3043623E-1,4.245349E0,1.0270778E-1,-9.719636E-3,-4.8837882E-1,7.888692E-2,4.1822476E0,4.9811106E-2,-2.7360488E-2,6.984528E-2,6.2434167E-2,-9.454834E-2,-9.4519205E-2,-1.9675676E-2],"split_indices":[37,0,13,34,0,0,0,0,19,24,43,0,2,1,0,30,0,0,0,0,0,0,0],"split_type":[0,0,0,0,0,0,0,0,0,0,0,0,0,0,0,0,0,0,0,0,0,0,0],"sum_hessian":[8.693436E1,4.308777E1,4.384659E1,3.74306E1,5.6571684E0,4.089212E1,2.9544673E0,2.4311185E0,3.499948E1,5.2250237E0,3.5667095E1,3.155915E1,3.440329E0,2.8014848E0,2.4235392E0,3.279687E1,2.8702245E0,2.037488E0,1.4028409E0,1.2165071E0,1.5849777E0,3.1487362E1,1.3095099E0],"tree_param":{"num_deleted":"0","num_feature":"78","num_nodes":"23","size_leaf_vector":"1"}},{"base_weights":[5.8043855E-3,3.1684402E-1,-9.853098E-2,5.2215505E-1,-7.8559417E-1,8.582277E-2,9.5636296E-1,-8.931417E-2,-3.4085962E-1,3.587794E-1,-6.9453436E-1,1.0628469E-1,8.527592E-2,1.5134568E-2,-6.2344808E-2,-7.977553E-2,5.5524063E-1,-9.043269E-2,3.4467492E-2,-8.038436E-2,7.251849E-2,7.842994E-2,-1.329675E-2],"categories":[],"categories_nodes":[],"categories_segments":[],"categories_sizes":[],"default_left":[0,0,0,0,0,0,0,0,0,0,0,0,0,0,0,0,0,0,0,0,0,0,0],"id":27,"left_children":[1,3,-1,5,7,9,11,-1,13,15,17,-1,19,-1,-1,-1,21,-1,-1,-1,-1,-1,-1],"loss_changes":[2.565406E1,1.4743561E1,0E0,1.0145811E1,1.9018316E-1,6.2186294E0,2.4100533E0,0E0,5.9939075E-1,5.3103333E0,1.9693058E0,0E0,2.8723369E0,0E0,0E0,0E0,3.0838509E0,0E0,0E0,0E0,0E0,0E0,0E0],"parents":[2147483647,0,0,1,1,3,3,4,4,5,5,6,6,8,8,9,9,10,10,12,12,16,16],"right_children":[2,4,-1,6,8,10,12,-1,14,16,18,-1,20,-1,-1,-1,22,-1,-1,-1,-1,-1,-1],"split_conditions":[-4.2168427E-1,-2.3115979E-1,-9.853098E-2,-2.3294033E-1,2.9636874E0,-3.422762E-1,-2.324952E-1,-8.931417E-2,-1.5281452E-1,1.7338793E-3,3.4517044E-1,1.0628469E-1,-2.3160493E-1,1.5134568E-2,-6.2344808E-2,-7.977553E-2,-1.3030712E-1,-9.043269E-2,3.4467492E-2,-8.038436E-2,7.251849E-2,7.842994E-2,-1.329675E-2],"split_indices":[38,67,0,67,67,42,67,0,37,34,21,0,67,0,0,0,24,0,0,0,0,0,0],"split_type":[0,0,0,0,0,0,0,0,0,0,0,0,0,0,0,0,0,0,0,0,0,0,0],"sum_hessian":[8.120521E1,6.2325897E1,1.8879313E1,5.2984722E1,9.341174E0,2.7025078E1,2.5959646E1,6.7102222E0,2.6309516E0,2.0422014E1,6.603062E0,2.2935778E1,3.023868E0,1.1289705E0,1.5019811E0,2.5209541E0,1.790106E1,5.6019506E0,1.0011117E0,1.1582947E0,1.8655733E0,1.3326073E1,4.5749884E0],"tree_param":{"num_deleted":"0","num_feature":"78","num_nodes":"23","size_leaf_vector":"1"}},{"base_weights":[-4.2693578E-2,-3.485485E-1,9.7553656E-2,6.597267E-2,-8.0679077E-1,4.1297758E-1,-9.164747E-2,-3.1811577E-1,-9.946006E-2,7.0536363E-1,-1.2176132E-1,3.7087607E-1,-8.504546E-2,8.9648813E-1,-2.1165003E-1,-8.068765E-2,2.049062E-1,-2.4966717E-2,6.435587E-1,9.343997E-2,2.5128225E-2,-6.072498E-2,2.9298484E-2,-4.3664724E-3,6.816255E-2,8.555252E-2,6.757349E-3],"categories":[],"categories_nodes":[],"categories_segments":[],"categories_sizes":[],"default_left":[0,0,0,0,0,0,0,0,0,0,0,0,0,0,0,0,0,0,0,0,0,0,0,0,0,0,0],"id":28,"left_children":[1,3,-1,5,7,9,-1,11,-1,13,15,17,-1,19,21,-1,23,-1,25,-1,-1,-1,-1,-1,-1,-1,-1],"loss_changes":[2.3102243E1,1.0869583E1,0E0,1.0886173E1,2.1726875E0,3.7548752E0,0E0,3.6162853E0,0E0,2.8744955E0,2.2127275E0,9.4226307E-1,0E0,7.994652E-2,8.6685336E-1,0E0,8.583057E-1,0E0,3.680904E-1,0E0,0E0,0E0,0E0,0E0,0E0,0E0,0E0],"parents":[2147483647,0,0,1,1,3,3,4,4,5,5,7,7,9,9,10,10,11,11,13,13,14,14,16,16,18,18],"right_children":[2,4,-1,6,8,10,-1,12,-1,14,16,18,-1,20,22,-1,24,-1,26,-1,-1,-1,-1,-1,-1,-1,-1],"split_conditions":[1.5300149E0,-3.387449E-1,9.7553656E-2,-4.2641157E-1,-6.0354665E-2,-6.4534575E-2,-9.164747E-2,-8.3726786E-2,-9.946006E-2,-3.799635E-1,1.733618E-3,2.2526577E-2,-8.504546E-2,-5.622395E-2,-2.9891735E-1,-8.068765E-2,1.7351867E-3,-2.4966717E-2,5.8990234E-1,9.343997E-2,2.5128225E-2,-6.072498E-2,2.9298484E-2,-4.3664724E-3,6.816255E-2,8.555252E-2,6.757349E-3],"split_indices":[13,6,0,0,14,19,0,73,0,22,34,8,0,14,1,0,34,0,9,0,0,0,0,0,0,0,0],"split_type":[0,0,0,0,0,0,0,0,0,0,0,0,0,0,0,0,0,0,0,0,0,0,0,0,0,0,0],"sum_hessian":[7.20892E1,5.594284E1,1.6146362E1,2.9822107E1,2.6120735E1,2.2466484E1,7.355622E0,7.999671E0,1.8121065E1,1.4318367E1,8.148117E0,3.6190016E0,4.380669E0,1.1867351E1,2.451017E0,2.1561115E0,5.992006E0,1.1305699E0,2.4884317E0,1.0785395E1,1.081956E0,1.2599534E0,1.1910635E0,4.5355077E0,1.4564981E0,1.464252E0,1.0241798E0],"tree_param":{"num_deleted":"0","num_feature":"78","num_nodes":"27","size_leaf_vector":"1"}},{"base_weights":[-2.1493058E-3,2.8447843E-1,-9.897606E-2,6.7843246E-1,-9.547289E-2,7.395834E-1,-8.969309E-2,8.192986E-1,-2.5676054E-1,5.373181E-1,1.0060083E0,-6.354208E-2,2.8034354E-2,-6.599941E-2,6.759583E-2,3.882514E-2,1.0456758E-1],"categories":[],"categories_nodes":[],"categories_segments":[],"categories_sizes":[],"default_left":[0,0,0,0,0,0,0,0,0,0,0,0,0,0,0,0,0],"id":29,"left_children":[1,3,-1,5,-1,7,-1,9,11,13,15,-1,-1,-1,-1,-1,-1],"loss_changes":[1.9993473E1,2.7375008E1,0E0,4.721552E0,0E0,3.4746723E0,0E0,1.475563E0,9.5221996E-1,3.334671E0,1.3048744E-1,0E0,0E0,0E0,0E0,0E0,0E0],"parents":[2147483647,0,0,1,1,3,3,5,5,7,7,8,8,9,9,10,10],"right_children":[2,4,-1,6,-1,8,-1,10,12,14,16,-1,-1,-1,-1,-1,-1],"split_conditions":[-4.2641157E-1,-4.2168427E-1,-9.897606E-2,1.5108014E0,-9.547289E-2,-2.303808E-1,-8.969309E-2,-2.3294033E-1,7.508471E-2,1.7340101E-3,-4.282702E-1,-6.354208E-2,2.8034354E-2,-6.599941E-2,6.759583E-2,3.882514E-2,1.0456758E-1],"split_indices":[0,38,0,66,0,67,0,67,66,34,0,0,0,0,0,0,0],"split_type":[0,0,0,0,0,0,0,0,0,0,0,0,0,0,0,0,0],"sum_hessian":[6.863449E1,5.3747635E1,1.4886859E1,4.1125904E1,1.2621731E1,4.0099876E1,1.0260258E0,3.729378E1,2.806096E0,1.6401318E1,2.0892462E1,1.5384405E0,1.2676556E0,1.3118196E0,1.50894985E1,1.9115065E0,1.8980955E1],"tree_param":{"num_deleted":"0","num_feature":"78","num_nodes":"17","size_leaf_vector":"1"}},{"base_weights":[-1.6780812E-2,2.610514E-1,-9.802731E-2,6.119048E-1,-9.4327934E-2,7.980264E-1,-2.0162569E-1,9.707127E-2,9.170949E-1,-6.796108E-1,8.077776E-2,5.147305E-1,-7.156486E-2,1.00553565E-1,3.5977643E-2,-1.1826476E-1,-2.2006394E-1,-1.7457476E-2,9.202689E-2,1.8865941E-2,-9.436966E-3,5.036765E-2,-6.2906705E-2],"categories":[],"categories_nodes":[],"categories_segments":[],"categories_sizes":[],"default_left":[0,0,0,0,0,0,0,0,0,0,0,0,0,0,0,0,0,0,0,0,0,0,0],"id":30,"left_children":[1,3,-1,5,-1,7,9,11,13,15,-1,17,-1,-1,19,-1,21,-1,-1,-1,-1,-1,-1],"loss_changes":[1.781323E1,2.2421947E1,0E0,6.314664E0,0E0,2.6882744E0,4.5850143E0,2.3880818E0,2.1711864E0,1.1776261E0,0E0,1.4219337E0,0E0,0E0,8.986667E-2,0E0,1.6427312E0,0E0,0E0,0E0,0E0,0E0,0E0],"parents":[2147483647,0,0,1,1,3,3,5,5,6,6,7,7,8,8,9,9,11,11,14,14,16,16],"right_children":[2,4,-1,6,-1,8,10,12,14,16,-1,18,-1,-1,20,-1,22,-1,-1,-1,-1,-1,-1],"split_conditions":[-4.2641157E-1,-4.2168427E-1,-9.802731E-2,-1.3030712E-1,-9.4327934E-2,1.733618E-3,5.6295786E-2,-6.4534575E-2,-2.0052504E-3,-4.0339744E-1,8.077776E-2,3.541389E-3,-7.156486E-2,1.00553565E-1,-1.644005E-1,-1.1826476E-1,-3.1351587E-1,-1.7457476E-2,9.202689E-2,1.8865941E-2,-9.436966E-3,5.036765E-2,-6.2906705E-2],"split_indices":[0,38,0,24,0,55,76,19,64,17,0,69,0,0,8,0,17,0,0,0,0,0,0],"split_type":[0,0,0,0,0,0,0,0,0,0,0,0,0,0,0,0,0,0,0,0,0,0,0],"sum_hessian":[6.4588486E1,5.0698227E1,1.3890261E1,3.9641518E1,1.1056709E1,3.2276318E1,7.365201E0,4.9501414E0,2.7326176E1,5.2200556E0,2.1451454E0,3.5119808E0,1.4381607E0,2.4705223E1,2.6209524E0,1.7408977E0,3.479158E0,1.5118202E0,2.0001607E0,1.001035E0,1.6199175E0,1.1726512E0,2.3065069E0],"tree_param":{"num_deleted":"0","num_feature":"78","num_nodes":"23","size_leaf_vector":"1"}},{"base_weights":[-2.6653867E-2,-3.1490353E-1,9.532993E-2,3.257086E-2,-8.415708E-1,4.0657812E-1,-9.1196686E-2,-9.025004E-1,6.0748816E-3,7.0874137E-1,-8.327848E-2,-9.744068E-2,-7.4396203E-3,8.4202546E-1,-1.9027038E-2,-3.258416E-1,6.856858E-2,2.5623038E-2,9.703502E-2,-1.486119E-3,-5.5288393E-2],"categories":[],"categories_nodes":[],"categories_segments":[],"categories_sizes":[],"default_left":[0,0,0,0,0,0,0,0,0,0,0,0,0,0,0,0,0,0,0,0,0],"id":31,"left_children":[1,3,-1,5,7,9,-1,11,-1,13,15,-1,-1,17,-1,19,-1,-1,-1,-1,-1],"loss_changes":[1.7408728E1,8.729713E0,0E0,1.0832018E1,1.0960894E0,3.3013167E0,0E0,9.877062E-1,0E0,1.796185E0,1.9490916E0,0E0,0E0,6.5904045E-1,0E0,5.362308E-1,0E0,0E0,0E0,0E0,0E0],"parents":[2147483647,0,0,1,1,3,3,4,4,5,5,7,7,9,9,10,10,13,13,15,15],"right_children":[2,4,-1,6,8,10,-1,12,-1,14,16,-1,-1,18,-1,20,-1,-1,-1,-1,-1],"split_conditions":[1.5300149E0,-4.7085702E-1,9.532993E-2,-4.2641157E-1,1.3665109E0,-6.4540215E-2,-9.1196686E-2,2.7402677E-3,6.0748816E-3,-1.2840597E-1,1.7355789E-3,-9.744068E-2,-7.4396203E-3,3.5446044E-3,-1.9027038E-2,-4.1997972E-1,6.856858E-2,2.5623038E-2,9.703502E-2,-1.486119E-3,-5.5288393E-2],"split_indices":[13,10,0,0,47,19,0,35,0,24,34,0,0,69,0,18,0,0,0,0,0],"split_type":[0,0,0,0,0,0,0,0,0,0,0,0,0,0,0,0,0,0,0,0,0],"sum_hessian":[5.956735E1,4.6552696E1,1.3014652E1,2.8613071E1,1.7939625E1,2.0904926E1,7.708146E0,1.680468E1,1.1349459E0,1.26531315E1,8.251794E0,1.5299512E1,1.5051675E0,1.10746355E1,1.5784963E0,6.711096E0,1.5406982E0,2.528574E0,8.5460615E0,3.2816572E0,3.4294386E0],"tree_param":{"num_deleted":"0","num_feature":"78","num_nodes":"21","size_leaf_vector":"1"}},{"base_weights":[3.5170757E-5,2.8658628E-1,-9.670119E-2,6.368903E-1,-9.258311E-2,8.161993E-1,-1.2409049E-1,8.9285845E-1,-5.9362385E-2,-4.78743E-1,7.3700115E-2,2.2647408E-1,9.852796E-1,-6.0818046E-2,4.688616E-2,5.8432873E-2,-8.3935E-1,-2.6035178E-2,8.279071E-2,1.0115415E-1,2.6913274E-2,-1.13610886E-1,6.929596E-3],"categories":[],"categories_nodes":[],"categories_segments":[],"categories_sizes":[],"default_left":[0,0,0,0,0,0,0,0,0,0,0,0,0,0,0,0,0,0,0,0,0,0,0],"id":32,"left_children":[1,3,-1,5,-1,7,9,11,13,15,-1,17,19,-1,-1,-1,21,-1,-1,-1,-1,-1,-1],"loss_changes":[1.6063639E1,1.9582054E1,0E0,4.916129E0,0E0,1.9786282E0,2.6728623E0,1.4053745E0,1.2265453E0,2.7855902E0,0E0,1.5386959E0,1.5888405E-1,0E0,0E0,0E0,1.3948822E0,0E0,0E0,0E0,0E0,0E0,0E0],"parents":[2147483647,0,0,1,1,3,3,5,5,6,6,7,7,8,8,9,9,11,11,12,12,16,16],"right_children":[2,4,-1,6,-1,8,10,12,14,16,-1,18,20,-1,-1,-1,22,-1,-1,-1,-1,-1,-1],"split_conditions":[-4.2641157E-1,-4.2168427E-1,-9.670119E-2,-1.3030712E-1,-9.258311E-2,7.7433554E-3,-4.8310943E-3,1.733618E-3,1.6625138E-1,-4.4918388E-1,7.3700115E-2,-6.0372524E-2,-1.2453308E-1,-6.0818046E-2,4.688616E-2,5.8432873E-2,1.7357095E-3,-2.6035178E-2,8.279071E-2,1.0115415E-1,2.6913274E-2,-1.13610886E-1,6.929596E-3],"split_indices":[0,38,0,24,0,2,74,55,53,66,0,14,29,0,0,0,55,0,0,0,0,0,0],"split_type":[0,0,0,0,0,0,0,0,0,0,0,0,0,0,0,0,0,0,0,0,0,0,0],"sum_hessian":[5.5968704E1,4.371802E1,1.2250683E1,3.428635E1,9.431668E0,2.7689373E1,6.596978E0,2.5442059E1,2.2473145E0,4.987029E0,1.6099492E0,3.519058E0,2.1923E1,1.0279347E0,1.2193798E0,1.1060332E0,3.8809958E0,2.2582486E0,1.2608095E0,2.0749613E1,1.1733875E0,2.7368302E0,1.1441656E0],"tree_param":{"num_deleted":"0","num_feature":"78","num_nodes":"23","size_leaf_vector":"1"}},{"base_weights":[-1.6630441E-2,2.511398E-1,-9.4703235E-2,5.60361E-1,-9.0841986E-2,2.9972264E-1,9.609591E-2,4.995924E-1,-5.3214693E-1,7.38389E-1,-1.1333549E-1,-6.777476E-2,-2.0052285E-3,5.2267946E-3,9.202554E-2,-6.515828E-2,2.5823096E-2],"categories":[],"categories_nodes":[],"categories_segments":[],"categories_sizes":[],"default_left":[0,0,0,0,0,0,0,0,0,0,0,0,0,0,0,0,0],"id":33,"left_children":[1,3,-1,5,-1,7,-1,9,11,13,15,-1,-1,-1,-1,-1,-1],"loss_changes":[1.3284762E1,1.5373507E1,0E0,3.1937542E0,0E0,3.8664699E0,0E0,2.7148018E0,3.3531237E-1,1.5827355E0,1.349616E0,0E0,0E0,0E0,0E0,0E0,0E0],"parents":[2147483647,0,0,1,1,3,3,5,5,7,7,8,8,9,9,10,10],"right_children":[2,4,-1,6,-1,8,-1,10,12,14,16,-1,-1,-1,-1,-1,-1],"split_conditions":[-4.2641157E-1,-4.2168427E-1,-9.4703235E-2,-4.8310943E-3,-9.0841986E-2,-2.9198265E-1,9.609591E-2,-6.452668E-2,-6.036677E-2,3.541389E-3,-4.1572493E-1,-6.777476E-2,-2.0052285E-3,5.2267946E-3,9.202554E-2,-6.515828E-2,2.5823096E-2],"split_indices":[0,38,0,74,0,18,0,19,14,69,23,0,0,0,0,0,0],"split_type":[0,0,0,0,0,0,0,0,0,0,0,0,0,0,0,0,0],"sum_hessian":[5.136912E1,4.0455948E1,1.0913172E1,3.234675E1,8.109201E0,2.0655798E1,1.1690949E1,1.6976389E1,3.6794097E0,1.2069443E1,4.9069448E0,2.6129932E0,1.0664167E0,2.7986124E0,9.270831E0,1.696215E0,3.2107298E0],"tree_param":{"num_deleted":"0","num_feature":"78","num_nodes":"17","size_leaf_vector":"1"}},{"base_weights":[-3.443453E-2,-2.984038E-1,9.0717115E-2,4.2617768E-2,-7.614475E-1,3.3068857E-1,-8.536437E-2,5.291067E-3,-8.5814756E-1,6.563818E-1,-1.1504002E-1,-9.4232135E-2,-2.2037973E-1,7.9255253E-1,-2.757679E-2,-3.4201446E-1,6.426858E-2,-5.2005798E-2,1.8797016E-2,1.7176572E-2,9.729831E-2,-6.904619E-2,-1.0296138E-2],"categories":[],"categories_nodes":[],"categories_segments":[],"categories_sizes":[],"default_left":[0,0,0,0,0,0,0,0,0,0,0,0,0,0,0,0,0,0,0,0,0,0,0],"id":34,"left_children":[1,3,-1,5,7,9,-1,-1,11,13,15,-1,17,19,-1,21,-1,-1,-1,-1,-1,-1,-1],"loss_changes":[1.2592691E1,6.2654376E0,0E0,6.3956957E0,1.3679113E0,2.781442E0,0E0,0E0,6.0131836E-1,1.6045437E0,1.7195988E0,0E0,4.7249752E-1,9.2893696E-1,0E0,5.422356E-1,0E0,0E0,0E0,0E0,0E0,0E0,0E0],"parents":[2147483647,0,0,1,1,3,3,4,4,5,5,8,8,9,9,10,10,12,12,13,13,15,15],"right_children":[2,4,-1,6,8,10,-1,-1,12,14,16,-1,18,20,-1,22,-1,-1,-1,-1,-1,-1,-1],"split_conditions":[1.0003581E0,-5.4226047E-1,9.0717115E-2,-4.2641157E-1,-4.282702E-1,-6.453288E-2,-8.536437E-2,5.291067E-3,1.3665109E0,-1.280622E-1,1.7351867E-3,-9.4232135E-2,-4.8303983E-1,3.541389E-3,-2.757679E-2,-4.1572493E-1,6.426858E-2,-5.2005798E-2,1.8797016E-2,1.7176572E-2,9.729831E-2,-6.904619E-2,-1.0296138E-2],"split_indices":[13,12,0,0,0,19,0,0,47,24,34,0,41,69,0,23,0,0,0,0,0,0,0],"split_type":[0,0,0,0,0,0,0,0,0,0,0,0,0,0,0,0,0,0,0,0,0,0,0],"sum_hessian":[4.8574505E1,3.8472294E1,1.0102213E1,2.2678232E1,1.5794061E1,1.7639643E1,5.0385885E0,1.7244518E0,1.4069609E1,9.919138E0,7.7205048E0,1.2007328E1,2.0622804E0,8.78549E0,1.1336476E0,6.363091E0,1.3574139E0,1.0316311E0,1.0306493E0,2.4180293E0,6.367461E0,1.8207774E0,4.5423136E0],"tree_param":{"num_deleted":"0","num_feature":"78","num_nodes":"23","size_leaf_vector":"1"}},{"base_weights":[-1.6990244E-2,2.3587894E-1,-9.384415E-2,5.365832E-1,-8.933791E-2,6.922842E-1,-1.23492174E-1,2.6518537E-2,8.1307226E-1,-6.0482246E-1,7.258234E-2,-5.934464E-2,4.4910684E-2,9.288469E-2,-5.607402E-2,-9.179352E-2,1.2773389E-2,-1.7525211E-2,1.0808454E-2],"categories":[],"categories_nodes":[],"categories_segments":[],"categories_sizes":[],"default_left":[0,0,0,0,0,0,0,0,0,0,0,0,0,0,0,0,0,0,0],"id":35,"left_children":[1,3,-1,5,-1,7,9,11,13,15,-1,-1,-1,-1,17,-1,-1,-1,-1],"loss_changes":[1.09304905E1,1.2997023E1,0E0,3.1415777E0,0E0,1.9254675E0,3.106047E0,1.5114515E0,2.1108694E0,1.1975081E0,0E0,0E0,0E0,0E0,8.444417E-2,0E0,0E0,0E0,0E0],"parents":[2147483647,0,0,1,1,3,3,5,5,6,6,7,7,8,8,9,9,14,14],"right_children":[2,4,-1,6,-1,8,10,12,14,16,-1,-1,-1,-1,18,-1,-1,-1,-1],"split_conditions":[-4.2641157E-1,-4.2168427E-1,-9.384415E-2,-1.3030712E-1,-8.933791E-2,1.733618E-3,-2.4009464E-2,-1.5144902E-1,2.360948E-3,-3.7833905E-1,7.258234E-2,-5.934464E-2,4.4910684E-2,9.288469E-2,1.5389064E-2,-9.179352E-2,1.2773389E-2,-1.7525211E-2,1.0808454E-2],"split_indices":[0,38,0,24,0,55,24,37,35,8,0,0,0,0,64,0,0,0,0],"split_type":[0,0,0,0,0,0,0,0,0,0,0,0,0,0,0,0,0,0,0],"sum_hessian":[4.4960632E1,3.5862957E1,9.097675E0,2.8735867E1,7.127089E0,2.3211786E1,5.5240803E0,3.7518258E0,1.945996E1,3.7096126E0,1.8144677E0,1.3568801E0,2.3949459E0,1.7111885E1,2.348077E0,2.4215322E0,1.2880805E0,1.321267E0,1.02681E0],"tree_param":{"num_deleted":"0","num_feature":"78","num_nodes":"19","size_leaf_vector":"1"}},{"base_weights":[-2.99839E-2,-2.6678625E-1,9.0432264E-2,3.8115714E-2,-7.6358116E-1,-1.4881968E-1,8.570403E-2,-8.2748216E-1,-4.061566E-3,4.1629385E-2,-7.90207E-2,-8.70594E-1,-1.706609E-2,-3.2369167E-1,3.2299596E-1,-3.2030288E-2,-9.359472E-2,-6.22296E-2,4.35257E-2,-3.2915972E-2,6.1786722E-2],"categories":[],"categories_nodes":[],"categories_segments":[],"categories_sizes":[],"default_left":[0,0,0,0,0,0,0,0,0,0,0,0,0,0,0,0,0,0,0,0,0],"id":36,"left_children":[1,3,-1,5,7,9,-1,11,-1,13,-1,15,-1,17,19,-1,-1,-1,-1,-1,-1],"loss_changes":[9.879162E0,5.410321E0,0E0,3.6434731E0,5.9278107E-1,2.421049E0,0E0,2.0272255E-1,0E0,1.7516998E0,0E0,1.1012268E-1,0E0,1.9641039E0,2.040434E0,0E0,0E0,0E0,0E0,0E0,0E0],"parents":[2147483647,0,0,1,1,3,3,4,4,5,5,7,7,9,9,11,11,13,13,14,14],"right_children":[2,4,-1,6,8,10,-1,12,-1,14,-1,16,-1,18,20,-1,-1,-1,-1,-1,-1],"split_conditions":[1.5300149E0,-4.7085702E-1,9.0432264E-2,1.7355789E-3,2.7444821E-3,-4.260176E-1,8.570403E-2,6.3825446E-1,-4.061566E-3,1.7338793E-3,-7.90207E-2,1.7332258E-3,-1.706609E-2,-5.1846963E-1,-4.4813088E-1,-3.2030288E-2,-9.359472E-2,-6.22296E-2,4.35257E-2,-3.2915972E-2,6.1786722E-2],"split_indices":[13,10,0,55,35,66,0,13,0,55,0,55,0,41,66,0,0,0,0,0,0],"split_type":[0,0,0,0,0,0,0,0,0,0,0,0,0,0,0,0,0,0,0,0,0],"sum_hessian":[4.256192E1,3.4525738E1,8.0361805E0,2.1967018E1,1.255872E1,1.855073E1,3.4162893E0,1.1406007E1,1.1527127E0,1.5024542E1,3.5261881E0,1.0398043E1,1.0079641E0,6.4715614E0,8.552979E0,1.7302212E0,8.667822E0,4.773506E0,1.6980555E0,2.6268942E0,5.9260855E0],"tree_param":{"num_deleted":"0","num_feature":"78","num_nodes":"21","size_leaf_vector":"1"}},{"base_weights":[-2.8569551E-2,-2.652098E-1,8.743008E-2,-3.8214657E-2,-9.015563E-2,2.6698318E-1,-8.7129876E-2,3.8613683E-1,-5.446319E-2,6.430127E-1,-9.955764E-2,8.8115595E-2,-3.4365875E-3,-7.516041E-2,1.46252215E-2],"categories":[],"categories_nodes":[],"categories_segments":[],"categories_sizes":[],"default_left":[0,0,0,0,0,0,0,0,0,0,0,0,0,0,0],"id":37,"left_children":[1,3,-1,5,-1,7,-1,9,-1,11,13,-1,-1,-1,-1],"loss_changes":[8.940081E0,4.741165E0,0E0,6.693978E0,0E0,2.0829897E0,0E0,2.2437203E0,0E0,1.8952527E0,1.2173815E0,0E0,0E0,0E0,0E0],"parents":[2147483647,0,0,1,1,3,3,5,5,7,7,9,9,10,10],"right_children":[2,4,-1,6,-1,8,-1,10,-1,12,14,-1,-1,-1,-1],"split_conditions":[1.0003581E0,-4.2641157E-1,8.743008E-2,-4.2168427E-1,-9.015563E-2,-2.303808E-1,-8.7129876E-2,-6.4534575E-2,-5.446319E-2,-7.8033553E-3,-4.4813088E-1,8.8115595E-2,-3.4365875E-3,-7.516041E-2,1.46252215E-2],"split_indices":[13,0,0,38,0,67,0,19,0,3,66,0,0,0,0],"split_type":[0,0,0,0,0,0,0,0,0,0,0,0,0,0,0],"sum_hessian":[3.975818E1,3.2061256E1,7.6969223E0,2.4412848E1,7.6484065E0,1.8364569E1,6.04828E0,1.6470728E1,1.8938398E0,1.0561186E1,5.9095435E0,7.591456E0,2.9697297E0,1.0545448E0,4.8549986E0],"tree_param":{"num_deleted":"0","num_feature":"78","num_nodes":"15","size_leaf_vector":"1"}},{"base_weights":[-3.4450363E-2,-2.9934525E-1,7.9770434E-1,-9.14263E-2,-8.8468835E-2,8.834258E-2,1.591626E-2,2.6139015E-1,-4.3570334E-1,4.6043062E-1,-4.0454216E-2,-5.733509E-1,5.242926E-2,-1.9822441E-2,6.487365E-1,-9.27896E-2,-1.8037589E-1,-5.9352595E-2,5.2769303E-2,8.501674E-2,1.6075252E-2,5.7709724E-2,-7.949632E-2],"categories":[],"categories_nodes":[],"categories_segments":[],"categories_sizes":[],"default_left":[0,0,0,0,0,0,0,0,0,0,0,0,0,0,0,0,0,0,0,0,0,0,0],"id":38,"left_children":[1,3,5,7,-1,-1,-1,9,11,13,-1,15,-1,17,19,-1,21,-1,-1,-1,-1,-1,-1],"loss_changes":[8.843169E0,3.61111E0,3.9023018E-1,2.9683409E0,0E0,0E0,0E0,1.8074572E0,1.9218245E0,9.067342E-1,0E0,1.3942051E0,0E0,1.4924794E0,5.641668E-1,0E0,3.5113564E0,0E0,0E0,0E0,0E0,0E0,0E0],"parents":[2147483647,0,0,1,1,2,2,3,3,7,7,8,8,9,9,11,11,13,13,14,14,16,16],"right_children":[2,4,6,8,-1,-1,-1,10,12,14,-1,16,-1,18,20,-1,22,-1,-1,-1,-1,-1,-1],"split_conditions":[7.124803E-1,-4.2168427E-1,-1.265536E-1,-4.4655135E-1,-8.8468835E-2,8.834258E-2,1.591626E-2,-6.443756E-2,1.5300149E0,-4.4957876E-1,-4.0454216E-2,-3.616414E-1,5.242926E-2,-2.7859554E-1,-3.1246436E-1,-9.27896E-2,-2.9198265E-1,-5.9352595E-2,5.2769303E-2,8.501674E-2,1.6075252E-2,5.7709724E-2,-7.949632E-2],"split_indices":[76,38,72,66,0,0,0,19,13,66,0,22,0,7,21,0,18,0,0,0,0,0,0],"split_type":[0,0,0,0,0,0,0,0,0,0,0,0,0,0,0,0,0,0,0,0,0,0,0],"sum_hessian":[3.8033897E1,2.9335863E1,8.698034E0,2.2499895E1,6.835966E0,7.330449E0,1.3675855E0,1.123104E1,1.1268856E1,8.884226E0,2.3468137E0,1.020796E1,1.0608964E0,2.7543352E0,6.129891E0,4.6507816E0,5.5571785E0,1.3039652E0,1.4503698E0,3.8135312E0,2.3163598E0,2.5165517E0,3.0406268E0],"tree_param":{"num_deleted":"0","num_feature":"78","num_nodes":"23","size_leaf_vector":"1"}},{"base_weights":[-5.691598E-3,2.3098084E-1,-9.0824E-2,4.9300238E-1,-8.518008E-2,6.9473344E-1,-1.3519022E-1,2.4815458E-3,8.2132375E-1,-4.302842E-1,6.402772E-2,-1.7726125E-2,2.6453316E-2,9.288224E-2,8.1409134E-2,-7.9938285E-2,-3.8428243E-2,-7.985526E-3,1.9453539E-2,5.4596473E-2,-4.709647E-2],"categories":[],"categories_nodes":[],"categories_segments":[],"categories_sizes":[],"default_left":[0,0,0,0,0,0,0,0,0,0,0,0,0,0,0,0,0,0,0,0,0],"id":39,"left_children":[1,3,-1,5,-1,7,9,11,13,15,-1,-1,-1,-1,17,-1,19,-1,-1,-1,-1],"loss_changes":[8.187972E0,9.04124E0,0E0,3.2747684E0,0E0,1.6771688E0,1.863222E0,2.3366946E-1,1.2126551E0,7.826772E-1,0E0,0E0,0E0,0E0,7.301325E-2,0E0,1.2121825E0,0E0,0E0,0E0,0E0],"parents":[2147483647,0,0,1,1,3,3,5,5,6,6,7,7,8,8,9,9,14,14,16,16],"right_children":[2,4,-1,6,-1,8,10,12,14,16,-1,-1,-1,-1,18,-1,20,-1,-1,-1,-1],"split_conditions":[-4.2641157E-1,-4.2168427E-1,-9.0824E-2,-1.3030712E-1,-8.518008E-2,1.733618E-3,-4.8310943E-3,-2.3185496E-1,-2.9716012E-3,-4.0339744E-1,6.402772E-2,-1.7726125E-2,2.6453316E-2,9.288224E-2,2.833286E-1,-7.9938285E-2,-3.1351587E-1,-7.985526E-3,1.9453539E-2,5.4596473E-2,-4.709647E-2],"split_indices":[0,38,0,24,0,34,74,67,3,17,0,0,0,0,9,0,17,0,0,0,0],"split_type":[0,0,0,0,0,0,0,0,0,0,0,0,0,0,0,0,0,0,0,0,0],"sum_hessian":[3.6349606E1,2.9387493E1,6.9621115E0,2.4100193E1,5.287299E0,1.8161938E1,5.938255E0,2.9654036E0,1.5196535E1,4.623842E0,1.3144131E0,1.9508603E0,1.0145433E0,1.30458555E1,2.1506793E0,1.8455147E0,2.778327E0,1.0079398E0,1.1427395E0,1.0701818E0,1.7081451E0],"tree_param":{"num_deleted":"0","num_feature":"78","num_nodes":"21","size_leaf_vector":"1"}},{"base_weights":[2.0207886E-2,2.4052969E-1,-8.8317975E-2,-8.429829E-2,4.887034E-1,2.554078E-1,9.157073E-2,4.210658E-1,-6.318211E-2,-2.2170189E-1,6.5254784E-1,5.5395346E-2,-7.197996E-2,9.21662E-2,7.4624578E-3],"categories":[],"categories_nodes":[],"categories_segments":[],"categories_sizes":[],"default_left":[0,0,0,0,0,0,0,0,0,0,0,0,0,0,0],"id":40,"left_children":[1,3,-1,-1,5,7,-1,9,-1,11,13,-1,-1,-1,-1],"loss_changes":[7.2262287E0,8.241144E0,0E0,0E0,2.189098E0,2.781664E0,0E0,2.3799253E0,0E0,2.223924E0,1.6884937E0,0E0,0E0,0E0,0E0],"parents":[2147483647,0,0,1,1,4,4,5,5,7,7,9,9,10,10],"right_children":[2,4,-1,-1,6,8,-1,10,-1,12,14,-1,-1,-1,-1],"split_conditions":[-4.2641157E-1,-4.6465E-1,-8.8317975E-2,-8.429829E-2,-4.8310943E-3,-1.6781336E-1,9.157073E-2,3.541389E-3,-6.318211E-2,-4.4812283E-1,-6.452668E-2,5.5395346E-2,-7.197996E-2,9.21662E-2,7.4624578E-3],"split_indices":[0,66,0,0,74,21,0,69,0,66,19,0,0,0,0],"split_type":[0,0,0,0,0,0,0,0,0,0,0,0,0,0,0],"sum_hessian":[3.4238842E1,2.8115635E1,6.123207E0,4.792985E0,2.3322649E1,1.6115828E1,7.2068214E0,1.4022961E1,2.0928676E0,3.7241573E0,1.0298803E1,1.4124705E0,2.3116868E0,6.620935E0,3.6778681E0],"tree_param":{"num_deleted":"0","num_feature":"78","num_nodes":"15","size_leaf_vector":"1"}},{"base_weights":[1.6021911E-2,2.4199986E-1,-8.7445155E-2,-8.3287634E-2,5.0006825E-1,2.8681415E-1,8.961231E-2,-3.417477E-1,4.38259E-1,-5.7675637E-2,-1.5189153E-3,6.033638E-1,2.3070147E-2,7.211202E-2,-1.3335491E-2,-6.011358E-2,4.3823726E-2],"categories":[],"categories_nodes":[],"categories_segments":[],"categories_sizes":[],"default_left":[0,0,0,0,0,0,0,0,0,0,0,0,0,0,0,0,0],"id":41,"left_children":[1,3,-1,-1,5,7,-1,9,11,-1,-1,13,15,-1,-1,-1,-1],"loss_changes":[6.716179E0,7.785395E0,0E0,0E0,1.6050448E0,1.6539268E0,0E0,2.69805E-1,8.889742E-1,0E0,0E0,9.102669E-1,1.5040597E0,0E0,0E0,0E0,0E0],"parents":[2147483647,0,0,1,1,4,4,5,5,7,7,8,8,11,11,12,12],"right_children":[2,4,-1,-1,6,8,-1,10,12,-1,-1,14,16,-1,-1,-1,-1],"split_conditions":[-4.2641157E-1,-4.6465E-1,-8.7445155E-2,-8.3287634E-2,-4.8310943E-3,-2.7088812E-1,8.961231E-2,-2.3917224E-1,-6.4534575E-2,-5.7675637E-2,-1.5189153E-3,-8.635158E-4,-4.8171574E-1,7.211202E-2,-1.3335491E-2,-6.011358E-2,4.3823726E-2],"split_indices":[0,66,0,0,74,36,0,67,19,0,0,2,20,0,0,0,0],"split_type":[0,0,0,0,0,0,0,0,0,0,0,0,0,0,0,0,0],"sum_hessian":[3.1324436E1,2.5564976E1,5.7594614E0,4.5183454E0,2.104663E1,1.4801175E1,6.245455E0,2.629797E0,1.2171379E1,1.0837257E0,1.5460713E0,8.3841095E0,3.787269E0,7.24694E0,1.1371692E0,1.3338627E0,2.4534066E0],"tree_param":{"num_deleted":"0","num_feature":"78","num_nodes":"17","size_leaf_vector":"1"}},{"base_weights":[-9.611284E-2,-3.1206203E-1,8.423265E-2,-3.2007072E-2,-7.2484344E-1,-1.9535987E-1,6.7093305E-2,-8.232998E-2,-1.9650023E-2,4.4531338E-2,-7.4916445E-2,3.504512E-1,-3.616149E-1,-3.6249065E-3,5.0611492E-2,-7.738279E-2,1.5859175E-3],"categories":[],"categories_nodes":[],"categories_segments":[],"categories_sizes":[],"default_left":[0,0,0,0,0,0,0,0,0,0,0,0,0,0,0,0,0],"id":42,"left_children":[1,3,-1,5,7,9,-1,-1,-1,11,-1,13,15,-1,-1,-1,-1],"loss_changes":[6.4894533E0,2.9485748E0,0E0,2.0098853E0,3.763547E-1,1.900109E0,0E0,0E0,0E0,1.4621739E0,0E0,4.1794413E-1,8.0736136E-1,0E0,0E0,0E0,0E0],"parents":[2147483647,0,0,1,1,3,3,4,4,5,5,9,9,11,11,12,12],"right_children":[2,4,-1,6,8,10,-1,-1,-1,12,-1,14,16,-1,-1,-1,-1],"split_conditions":[1.5300149E0,-5.4226047E-1,8.423265E-2,1.7355789E-3,2.4747436E-3,-4.4510347E-1,6.7093305E-2,-8.232998E-2,-1.9650023E-2,-6.453824E-2,-7.4916445E-2,-4.4957876E-1,-1.3036315E-1,-3.6249065E-3,5.0611492E-2,-7.738279E-2,1.5859175E-3],"split_indices":[13,12,0,34,35,66,0,0,0,19,0,66,24,0,0,0,0],"split_type":[0,0,0,0,0,0,0,0,0,0,0,0,0,0,0,0,0],"sum_hessian":[2.9725067E1,2.4707062E1,5.018005E0,1.5362076E1,9.344987E0,1.3051243E1,2.3108327E0,7.4065204E0,1.9384663E0,9.748208E0,3.3030355E0,5.638371E0,4.1098366E0,1.8384411E0,3.79993E0,1.4626087E0,2.647228E0],"tree_param":{"num_deleted":"0","num_feature":"78","num_nodes":"17","size_leaf_vector":"1"}},{"base_weights":[-3.1319823E-2,1.866293E-1,-8.634272E-2,-7.949573E-2,4.0127894E-1,7.227853E-1,3.317346E-2,8.670357E-2,-6.7372583E-3,-1.6745083E-1,6.823769E-2,-4.0603644E-1,4.2117974E-1,-6.3759916E-2,1.6889137E-3,5.282178E-2,1.0521523E-2],"categories":[],"categories_nodes":[],"categories_segments":[],"categories_sizes":[],"default_left":[0,0,0,0,0,0,0,0,0,0,0,0,0,0,0,0,0],"id":43,"left_children":[1,3,-1,-1,5,7,9,-1,-1,11,-1,13,15,-1,-1,-1,-1],"loss_changes":[5.4019E0,5.317114E0,0E0,0E0,2.3583443E0,1.2776527E0,1.4731041E0,0E0,0E0,1.4030662E0,0E0,6.7199373E-1,4.6598375E-2,0E0,0E0,0E0,0E0],"parents":[2147483647,0,0,1,1,4,4,5,5,6,6,9,9,11,11,12,12],"right_children":[2,4,-1,-1,6,8,10,-1,-1,12,-1,14,16,-1,-1,-1,-1],"split_conditions":[-4.2641157E-1,-4.6465E-1,-8.634272E-2,-7.949573E-2,-6.455652E-2,1.7426362E-3,-4.8310943E-3,8.670357E-2,-6.7372583E-3,-1.5144902E-1,6.823769E-2,-2.64383E-1,-4.4918388E-1,-6.3759916E-2,1.6889137E-3,5.282178E-2,1.0521523E-2],"split_indices":[0,66,0,0,19,34,74,0,0,37,0,36,66,0,0,0,0],"split_type":[0,0,0,0,0,0,0,0,0,0,0,0,0,0,0,0,0],"sum_hessian":[2.789746E1,2.2721788E1,5.175673E0,3.5920296E0,1.9129759E1,9.696889E0,9.43287E0,8.117645E0,1.5792434E0,7.772875E0,1.6599956E0,5.751756E0,2.0211182E0,3.3887405E0,2.363016E0,1.0079097E0,1.0132086E0],"tree_param":{"num_deleted":"0","num_feature":"78","num_nodes":"17","size_leaf_vector":"1"}},{"base_weights":[-4.265781E-2,-2.5708672E-1,7.189457E-1,-7.041902E-2,-8.360001E-2,7.954318E-2,1.835995E-2,1.4188232E-1,-7.8013524E-2,4.0263742E-1,-4.6426877E-1,-2.7719346E-1,6.2085146E-1,-8.166585E-2,-3.102595E-2,-5.917987E-2,2.212283E-2,3.800431E-2,7.8593954E-2,4.1544605E-2,-4.7519304E-2],"categories":[],"categories_nodes":[],"categories_segments":[],"categories_sizes":[],"default_left":[0,0,0,0,0,0,0,0,0,0,0,0,0,0,0,0,0,0,0,0,0],"id":44,"left_children":[1,3,5,7,-1,-1,-1,9,-1,11,13,15,17,-1,19,-1,-1,-1,-1,-1,-1],"loss_changes":[4.8357797E0,2.4221973E0,1.2093663E-1,2.8910875E0,0E0,0E0,0E0,2.5657325E0,0E0,1.8126649E0,7.367004E-1,6.606935E-1,4.6393394E-2,0E0,8.475398E-1,0E0,0E0,0E0,0E0,0E0,0E0],"parents":[2147483647,0,0,1,1,2,2,3,3,7,7,9,9,10,10,11,11,12,12,14,14],"right_children":[2,4,6,8,-1,-1,-1,10,-1,12,14,16,18,-1,20,-1,-1,-1,-1,-1,-1],"split_conditions":[7.124803E-1,-4.2641157E-1,-7.337249E-2,-4.2168427E-1,-8.360001E-2,7.954318E-2,1.835995E-2,-1.3030712E-1,-7.8013524E-2,3.541389E-3,-4.0339744E-1,-6.035087E-2,-2.4615821E-1,-8.166585E-2,2.2387225E-3,-5.917987E-2,2.212283E-2,3.800431E-2,7.8593954E-2,4.1544605E-2,-4.7519304E-2],"split_indices":[76,0,73,38,0,0,0,24,0,69,17,14,36,0,35,0,0,0,0,0,0],"split_type":[0,0,0,0,0,0,0,0,0,0,0,0,0,0,0,0,0,0,0,0,0],"sum_hessian":[2.7479296E1,2.1959152E1,5.520143E0,1.7453121E1,4.5060315E0,4.4049687E0,1.1151742E0,1.4050271E1,3.4028494E0,1.0058875E1,3.9913964E0,2.3785093E0,7.6803656E0,1.7130506E0,2.2783458E0,1.3432813E0,1.035228E0,4.466824E0,3.2135413E0,1.1684725E0,1.1098733E0],"tree_param":{"num_deleted":"0","num_feature":"78","num_nodes":"21","size_leaf_vector":"1"}},{"base_weights":[-3.069876E-2,-2.426044E-1,6.9361526E-1,-7.807079E-2,-7.995209E-2,7.964482E-2,1.326516E-2,5.4922346E-2,-5.6715244E-1,-8.086262E-2,7.038581E-2,-6.7124E-2,-1.3707128E-2,8.000566E-2,-7.387873E-2,3.750373E-2,-4.5368604E-2],"categories":[],"categories_nodes":[],"categories_segments":[],"categories_sizes":[],"default_left":[0,0,0,0,0,0,0,0,0,0,0,0,0,0,0,0,0],"id":45,"left_children":[1,3,5,7,-1,-1,-1,9,11,13,-1,-1,-1,15,-1,-1,-1],"loss_changes":[4.312025E0,1.9193624E0,2.6179552E-1,1.1891717E0,0E0,0E0,0E0,1.3706365E0,8.233392E-2,1.4589566E0,0E0,0E0,0E0,1.985605E0,0E0,0E0,0E0],"parents":[2147483647,0,0,1,1,2,2,3,3,7,7,8,8,9,9,13,13],"right_children":[2,4,6,8,-1,-1,-1,10,12,14,-1,-1,-1,16,-1,-1,-1],"split_conditions":[6.4654225E-1,-4.2168427E-1,1.5363846E0,-2.9198265E-1,-7.995209E-2,7.964482E-2,1.326516E-2,-3.9926553E-1,6.261526E-1,-6.4279065E-2,7.038581E-2,-6.7124E-2,-1.3707128E-2,-4.4655135E-1,-7.387873E-2,3.750373E-2,-4.5368604E-2],"split_indices":[16,38,26,18,0,0,0,20,52,19,0,0,0,66,0,0,0],"split_type":[0,0,0,0,0,0,0,0,0,0,0,0,0,0,0,0,0],"sum_hessian":[2.5997541E1,2.0627739E1,5.369804E0,1.680354E1,3.824199E0,4.1831794E0,1.1866248E0,1.3909038E1,2.894501E0,1.2226191E1,1.6828471E0,1.8790157E0,1.0154854E0,1.0529929E1,1.696262E0,6.9726405E0,3.5572882E0],"tree_param":{"num_deleted":"0","num_feature":"78","num_nodes":"17","size_leaf_vector":"1"}},{"base_weights":[-7.56418E-2,-2.4578959E-1,7.908701E-2,-5.8635008E-2,-8.3994076E-2,1.2816611E-1,-7.6096795E-2,3.5664478E-1,-2.8501147E-1,6.332242E-1,-1.1186069E-1,-4.976815E-1,2.060726E-2,2.5528079E-2,9.679491E-2,-5.0174296E-2,2.545079E-2,-8.2302034E-2,-8.570901E-3],"categories":[],"categories_nodes":[],"categories_segments":[],"categories_sizes":[],"default_left":[0,0,0,0,0,0,0,0,0,0,0,0,0,0,0,0,0,0,0],"id":46,"left_children":[1,3,-1,5,-1,7,-1,9,11,13,15,17,-1,-1,-1,-1,-1,-1,-1],"loss_changes":[4.149332E0,2.5288873E0,0E0,2.5517402E0,0E0,1.5773563E0,0E0,1.4327177E0,7.419386E-1,6.0793924E-1,8.06371E-1,5.4128635E-1,0E0,0E0,0E0,0E0,0E0,0E0,0E0],"parents":[2147483647,0,0,1,1,3,3,5,5,7,7,8,8,9,9,10,10,11,11],"right_children":[2,4,-1,6,-1,8,-1,10,12,14,16,18,-1,-1,-1,-1,-1,-1,-1],"split_conditions":[1.5300149E0,-4.2641157E-1,7.908701E-2,-4.2168427E-1,-8.3994076E-2,-6.452668E-2,-7.6096795E-2,-3.696184E-1,-2.4360497E-3,-6.0372423E-2,-2.9891735E-1,-2.64383E-1,2.060726E-2,2.5528079E-2,9.679491E-2,-5.0174296E-2,2.545079E-2,-8.2302034E-2,-8.570901E-3],"split_indices":[13,0,0,38,0,19,0,25,19,14,1,36,0,0,0,0,0,0,0],"split_type":[0,0,0,0,0,0,0,0,0,0,0,0,0,0,0,0,0,0,0],"sum_hessian":[2.5824987E1,2.2185083E1,3.6399045E0,1.7706358E1,4.4787254E0,1.463213E1,3.0742278E0,9.510077E0,5.1220527E0,5.7588134E0,3.7512639E0,3.564826E0,1.5572265E0,3.532673E0,2.2261403E0,1.6383067E0,2.112957E0,1.4343498E0,2.1304762E0],"tree_param":{"num_deleted":"0","num_feature":"78","num_nodes":"19","size_leaf_vector":"1"}},{"base_weights":[3.952362E-2,2.3134367E-1,-8.095087E-2,-7.533007E-2,4.2755017E-1,-8.429885E-3,5.799414E-1,6.7624055E-2,-6.1469883E-2,2.882497E-1,8.6722046E-2,5.6480336E-1,-1.6151905E-1,2.212209E-2,7.1225666E-2,-6.325515E-2,2.2396034E-2],"categories":[],"categories_nodes":[],"categories_segments":[],"categories_sizes":[],"default_left":[0,0,0,0,0,0,0,0,0,0,0,0,0,0,0,0,0],"id":47,"left_children":[1,3,-1,-1,5,7,9,-1,-1,11,-1,13,15,-1,-1,-1,-1],"loss_changes":[4.2741E0,4.426865E0,0E0,0E0,1.2243612E0,2.798166E0,8.909197E-1,0E0,0E0,1.117838E0,0E0,1.1263049E-1,8.534718E-1,0E0,0E0,0E0,0E0],"parents":[2147483647,0,0,1,1,4,4,5,5,6,6,9,9,11,11,12,12],"right_children":[2,4,-1,-1,6,8,10,-1,-1,12,-1,14,16,-1,-1,-1,-1],"split_conditions":[-4.2641157E-1,-4.6465E-1,-8.095087E-2,-7.533007E-2,3.541389E-3,-4.480149E-1,-5.080559E-1,6.7624055E-2,-6.1469883E-2,-3.1243086E-1,8.6722046E-2,-2.4615821E-1,-7.5376876E-2,2.212209E-2,7.1225666E-2,-6.325515E-2,2.2396034E-2],"split_indices":[0,66,0,0,69,66,39,0,0,16,0,36,16,0,0,0,0],"split_type":[0,0,0,0,0,0,0,0,0,0,0,0,0,0,0,0,0],"sum_hessian":[2.409388E1,2.0247032E1,3.8468478E0,2.89241E0,1.7354622E1,4.7396145E0,1.2615006E1,2.171682E0,2.5679328E0,7.2534857E0,5.361521E0,4.333277E0,2.9202082E0,2.0520506E0,2.2812269E0,1.0257977E0,1.8944106E0],"tree_param":{"num_deleted":"0","num_feature":"78","num_nodes":"17","size_leaf_vector":"1"}},{"base_weights":[-6.0237978E-2,1.1401759E-1,-8.0807276E-2,2.8153542E-1,-7.3320605E-2,-5.5522203E-2,6.381619E-1,-5.145976E-2,1.5113312E-1,-7.781139E-3,8.1395566E-1,6.3739106E-2,-1.8015328E-1,9.251365E-2,1.4286927E-2,-7.073017E-2,1.255962E-2],"categories":[],"categories_nodes":[],"categories_segments":[],"categories_sizes":[],"default_left":[0,0,0,0,0,0,0,0,0,0,0,0,0,0,0,0,0],"id":48,"left_children":[1,3,-1,5,-1,7,9,-1,11,-1,13,-1,15,-1,-1,-1,-1],"loss_changes":[3.2566211E0,3.1259303E0,0E0,2.1867669E0,0E0,1.0379661E0,1.1679523E0,0E0,1.3636523E0,0E0,4.000702E-1,0E0,9.5765805E-1,0E0,0E0,0E0,0E0],"parents":[2147483647,0,0,1,1,3,3,5,5,6,6,8,8,10,10,12,12],"right_children":[2,4,-1,6,-1,8,10,-1,12,-1,14,-1,16,-1,-1,-1,-1],"split_conditions":[-4.2641157E-1,-4.2168427E-1,-8.0807276E-2,-6.0371593E-2,-7.3320605E-2,1.733618E-3,-2.3294033E-1,-5.145976E-2,-1.303853E-1,-7.781139E-3,3.8982114E-1,6.3739106E-2,-6.4415E-2,9.251365E-2,1.4286927E-2,-7.073017E-2,1.255962E-2],"split_indices":[0,38,0,14,0,34,67,0,24,0,6,0,19,0,0,0,0],"split_type":[0,0,0,0,0,0,0,0,0,0,0,0,0,0,0,0,0],"sum_hessian":[2.3283482E1,1.9570765E1,3.7127156E0,1.6897411E1,2.6733546E0,9.121109E0,7.7763014E0,2.368801E0,6.7523084E0,1.6428142E0,6.133487E0,2.36176E0,4.390548E0,4.936995E0,1.1964918E0,1.1296171E0,3.2609313E0],"tree_param":{"num_deleted":"0","num_feature":"78","num_nodes":"17","size_leaf_vector":"1"}},{"base_weights":[2.1538977E-2,2.0237486E-1,-7.808185E-2,3.8246855E-1,-7.166849E-2,5.175972E-1,-1.329508E-1,1.7656183E-1,9.169846E-2,-4.02259E-2,3.460522E-2,-4.8030656E-2,3.5992062E-1,4.9224716E-2,-2.1396205E-2],"categories":[],"categories_nodes":[],"categories_segments":[],"categories_sizes":[],"default_left":[0,0,0,0,0,0,0,0,0,0,0,0,0,0,0],"id":49,"left_children":[1,3,-1,5,-1,7,9,11,-1,-1,-1,-1,13,-1,-1],"loss_changes":[3.404919E0,3.428206E0,0E0,1.2239807E0,0E0,1.6557593E0,6.8625706E-1,1.1890267E0,0E0,0E0,0E0,0E0,6.4960957E-1,0E0,0E0],"parents":[2147483647,0,0,1,1,3,3,5,5,6,6,7,7,12,12],"right_children":[2,4,-1,6,-1,8,10,12,-1,-1,-1,-1,14,-1,-1],"split_conditions":[-4.2641157E-1,-4.2168427E-1,-7.808185E-2,-2.324952E-1,-7.166849E-2,-2.3294033E-1,2.1503969E-1,3.541389E-3,9.169846E-2,-4.02259E-2,3.460522E-2,-4.8030656E-2,-2.587582E-1,4.9224716E-2,-2.1396205E-2],"split_indices":[0,38,0,67,0,67,8,69,0,0,0,0,67,0,0],"split_type":[0,0,0,0,0,0,0,0,0,0,0,0,0,0,0],"sum_hessian":[2.1377754E1,1.8056044E1,3.3217092E0,1.558579E1,2.4702547E0,1.2345038E1,3.2407513E0,7.436836E0,4.908203E0,2.1770003E0,1.063751E0,1.2694918E0,6.167344E0,5.12733E0,1.040014E0],"tree_param":{"num_deleted":"0","num_feature":"78","num_nodes":"15","size_leaf_vector":"1"}},{"base_weights":[-2.3468157E-2,-1.9689277E-1,6.1423045E-1,-5.100979E-2,-7.364419E-2,7.009423E-2,1.7488902E-2,2.58544E-1,-3.5471275E-1,4.952107E-1,-2.7863799E-2,-6.46183E-2,-1.0419337E-2,2.2969497E-3,6.471089E-2,4.896304E-2,-5.2203923E-2],"categories":[],"categories_nodes":[],"categories_segments":[],"categories_sizes":[],"default_left":[0,0,0,0,0,0,0,0,0,0,0,0,0,0,0,0,0],"id":50,"left_children":[1,3,5,7,-1,-1,-1,9,11,13,-1,-1,15,-1,-1,-1,-1],"loss_changes":[2.5308414E0,1.370498E0,6.4152E-2,1.5165663E0,0E0,0E0,0E0,1.1657465E0,8.032948E-1,4.1351104E-1,0E0,0E0,1.4623859E0,0E0,0E0,0E0,0E0],"parents":[2147483647,0,0,1,1,2,2,3,3,7,7,8,8,9,9,12,12],"right_children":[2,4,6,8,-1,-1,-1,10,12,14,-1,-1,16,-1,-1,-1,-1],"split_conditions":[7.124803E-1,-4.2168427E-1,-7.51574E-2,-4.4655135E-1,-7.364419E-2,7.009423E-2,1.7488902E-2,-6.443756E-2,-3.616414E-1,3.541389E-3,-2.7863799E-2,-6.46183E-2,-2.9198265E-1,2.2969497E-3,6.471089E-2,4.896304E-2,-5.2203923E-2],"split_indices":[76,38,73,66,0,0,0,19,22,69,0,0,18,0,0,0,0],"split_type":[0,0,0,0,0,0,0,0,0,0,0,0,0,0,0,0,0],"sum_hessian":[2.0790817E1,1.6889025E1,3.9017909E0,1.415606E1,2.7329655E0,2.761351E0,1.1404399E0,7.08414E0,7.0719204E0,4.971829E0,2.1123106E0,3.3549044E0,3.717016E0,1.4901792E0,3.4816499E0,1.901499E0,1.815517E0],"tree_param":{"num_deleted":"0","num_feature":"78","num_nodes":"17","size_leaf_vector":"1"}},{"base_weights":[-3.742132E-2,-1.9186434E-1,7.33402E-2,6.0918424E-3,-6.3473827E-1,-1.8128061E-1,6.916723E-2,-7.887803E-2,-1.719201E-2,2.6612349E-2,-5.597163E-1,1.6455634E-1,-5.074651E-2,-7.705914E-2,1.1354426E-3,5.5008907E-2,-6.334528E-3],"categories":[],"categories_nodes":[],"categories_segments":[],"categories_sizes":[],"default_left":[0,0,0,0,0,0,0,0,0,0,0,0,0,0,0,0,0],"id":51,"left_children":[1,3,-1,5,7,9,-1,-1,-1,11,13,15,-1,-1,-1,-1,-1],"loss_changes":[2.7389405E0,1.6673678E0,0E0,1.9371411E0,2.8294826E-1,9.4866574E-1,0E0,0E0,0E0,7.1820855E-1,5.209987E-1,7.0277303E-1,0E0,0E0,0E0,0E0,0E0],"parents":[2147483647,0,0,1,1,3,3,4,4,5,5,9,9,10,10,11,11],"right_children":[2,4,-1,6,8,10,-1,-1,-1,12,14,16,-1,-1,-1,-1,-1],"split_conditions":[1.0003581E0,-4.7085702E-1,7.33402E-2,1.7355789E-3,-2.3294033E-1,-4.4556415E-1,6.916723E-2,-7.887803E-2,-1.719201E-2,-4.2641157E-1,6.4654225E-1,-4.4918388E-1,-5.074651E-2,-7.705914E-2,1.1354426E-3,5.5008907E-2,-6.334528E-3],"split_indices":[13,10,0,34,67,66,0,0,0,0,16,66,0,0,0,0,0],"split_type":[0,0,0,0,0,0,0,0,0,0,0,0,0,0,0,0,0],"sum_hessian":[2.0824986E1,1.7974655E1,2.8503304E0,1.3103766E1,4.870888E0,1.0868841E1,2.234926E0,3.1261113E0,1.7447771E0,7.6151495E0,3.253691E0,6.601874E0,1.0132757E0,2.1210766E0,1.1326145E0,1.9274927E0,4.6743813E0],"tree_param":{"num_deleted":"0","num_feature":"78","num_nodes":"17","size_leaf_vector":"1"}},{"base_weights":[-4.213179E-2,-2.1387148E-1,6.4595185E-2,-5.5978024E-1,-3.7983164E-2,-7.055408E-2,-8.946654E-3,-6.725264E-1,1.9054416E-1,-1.8769942E-2,-7.967802E-2,3.535631E-1,-4.8246987E-2,5.776162E-1,-2.0950293E-2,7.946595E-2,-2.5606645E-2],"categories":[],"categories_nodes":[],"categories_segments":[],"categories_sizes":[],"default_left":[0,0,0,0,0,0,0,0,0,0,0,0,0,0,0,0,0],"id":52,"left_children":[1,3,-1,5,7,-1,-1,9,11,-1,-1,13,-1,15,-1,-1,-1],"loss_changes":[2.5624657E0,1.0233128E0,0E0,3.2862556E-1,1.9341543E0,0E0,0E0,6.2403917E-2,1.2606854E0,0E0,0E0,1.2028743E0,0E0,1.3616579E0,0E0,0E0,0E0],"parents":[2147483647,0,0,1,1,3,3,4,4,7,7,8,8,11,11,13,13],"right_children":[2,4,-1,6,8,-1,-1,10,12,-1,-1,14,-1,16,-1,-1,-1],"split_conditions":[4.145155E-1,3.5465122E-3,6.4595185E-2,-1.5126708E-1,-4.4813088E-1,-7.055408E-2,-8.946654E-3,-4.883744E-1,-6.9631755E-2,-1.8769942E-2,-7.967802E-2,-1.5269738E-1,-4.8246987E-2,-1.3030712E-1,-2.0950293E-2,7.946595E-2,-2.5606645E-2],"split_indices":[17,69,0,37,66,0,0,1,18,0,0,37,0,24,0,0,0],"split_type":[0,0,0,0,0,0,0,0,0,0,0,0,0,0,0,0,0],"sum_hessian":[1.9515266E1,1.616884E1,3.3464243E0,4.7145114E0,1.145433E1,3.2172618E0,1.4972494E0,2.5184824E0,8.935847E0,1.0259464E0,1.4925361E0,7.5755405E0,1.360307E0,5.400681E0,2.1748598E0,4.3222284E0,1.0784523E0],"tree_param":{"num_deleted":"0","num_feature":"78","num_nodes":"17","size_leaf_vector":"1"}},{"base_weights":[-5.2801907E-2,-1.8965034E-1,6.928056E-2,-5.810944E-1,1.3199384E-2,-1.5905594E-2,-7.2188854E-2,-4.2847157E-1,1.923441E-1,-7.395474E-2,2.069943E-2,4.0878245E-1,-3.1953025E-1,7.042366E-2,1.2377099E-2,-6.0236406E-2,7.9665845E-3,-3.6489964E-2,4.197189E-2],"categories":[],"categories_nodes":[],"categories_segments":[],"categories_sizes":[],"default_left":[0,0,0,0,0,0,0,0,0,0,0,0,0,0,0,0,0,0,0],"id":53,"left_children":[1,3,-1,5,7,-1,-1,9,11,-1,-1,13,15,-1,17,-1,-1,-1,-1],"loss_changes":[2.1070788E0,1.369071E0,0E0,2.3423648E-1,1.0533179E0,0E0,0E0,9.1428787E-1,1.1742622E0,0E0,0E0,8.180742E-1,4.2743295E-1,0E0,7.728797E-1,0E0,0E0,0E0,0E0],"parents":[2147483647,0,0,1,1,3,3,4,4,7,7,8,8,11,11,12,12,14,14],"right_children":[2,4,-1,6,8,-1,-1,10,12,-1,-1,14,16,-1,18,-1,-1,-1,-1],"split_conditions":[1.5300149E0,3.541389E-3,6.928056E-2,-4.6392608E-1,-4.4813088E-1,-1.5905594E-2,-7.2188854E-2,-2.5909203E-1,-1.3032857E-1,-7.395474E-2,2.069943E-2,-4.4655135E-1,6.4654225E-1,7.042366E-2,-1.647587E-3,-6.0236406E-2,7.9665845E-3,-3.6489964E-2,4.197189E-2],"split_indices":[13,69,0,66,66,0,0,67,24,0,0,66,16,0,68,0,0,0,0],"split_type":[0,0,0,0,0,0,0,0,0,0,0,0,0,0,0,0,0,0,0],"sum_hessian":[1.8362806E1,1.6145172E1,2.2176342E0,4.8743553E0,1.1270817E1,1.7520853E0,3.1222699E0,2.8507342E0,8.420083E0,1.803896E0,1.0468383E0,6.05937E0,2.3607128E0,3.0268219E0,3.0325482E0,1.0838517E0,1.276861E0,1.6284676E0,1.4040806E0],"tree_param":{"num_deleted":"0","num_feature":"78","num_nodes":"19","size_leaf_vector":"1"}},{"base_weights":[-4.6904318E-2,1.172226E-1,-7.547534E-2,-2.2141707E-1,5.4577404E-1,3.2731853E-2,-7.318434E-2,8.825758E-2,-4.9676523E-2,-1.9550851E-1,6.1198086E-2,-1.9353505E-2,1.6994072E-2,5.1084727E-2,-4.3152472E-1,-6.768715E-2,-1.3839121E-2],"categories":[],"categories_nodes":[],"categories_segments":[],"categories_sizes":[],"default_left":[0,0,0,0,0,0,0,0,0,0,0,0,0,0,0,0,0],"id":54,"left_children":[1,3,-1,5,7,9,-1,-1,11,13,-1,-1,-1,-1,15,-1,-1],"loss_changes":[2.3546643E0,2.544473E0,0E0,1.3264091E0,1.5800819E0,1.1323547E0,0E0,0E0,1.5023397E-1,1.2628423E0,0E0,0E0,0E0,0E0,2.8237993E-1,0E0,0E0],"parents":[2147483647,0,0,1,1,3,3,4,4,5,5,8,8,9,9,14,14],"right_children":[2,4,-1,6,8,10,-1,-1,12,14,-1,-1,-1,-1,16,-1,-1],"split_conditions":[-4.2641157E-1,-2.3294033E-1,-7.547534E-2,-4.7085702E-1,-2.324952E-1,1.7355789E-3,-7.318434E-2,8.825758E-2,-1.6733654E-1,-4.2001578E-1,6.1198086E-2,-1.9353505E-2,1.6994072E-2,5.1084727E-2,-6.435437E-2,-6.768715E-2,-1.3839121E-2],"split_indices":[0,67,0,10,67,34,0,0,8,18,0,0,0,0,19,0,0],"split_type":[0,0,0,0,0,0,0,0,0,0,0,0,0,0,0,0,0],"sum_hessian":[1.850634E1,1.5700342E1,2.805997E0,9.040172E0,6.6601715E0,6.659954E0,2.3802173E0,3.9460108E0,2.7141607E0,5.252716E0,1.4072381E0,1.7116923E0,1.0024682E0,1.0239004E0,4.2288156E0,1.5894167E0,2.6393988E0],"tree_param":{"num_deleted":"0","num_feature":"78","num_nodes":"17","size_leaf_vector":"1"}},{"base_weights":[-1.8123068E-2,1.4348108E-1,-7.405415E-2,2.8709033E-1,-6.4818196E-2,-6.257461E-4,5.92737E-1,4.4155754E-2,-1.4365062E-1,7.933315E-2,-4.6759984E-3,-2.6998422E-1,2.9541278E-2,-8.939935E-4,-5.928695E-2],"categories":[],"categories_nodes":[],"categories_segments":[],"categories_sizes":[],"default_left":[0,0,0,0,0,0,0,0,0,0,0,0,0,0,0],"id":55,"left_children":[1,3,-1,5,-1,7,9,-1,11,-1,-1,13,-1,-1,-1],"loss_changes":[2.3205175E0,2.0434475E0,0E0,1.2773896E0,0E0,5.996779E-1,9.4049525E-1,0E0,4.7698677E-1,0E0,0E0,5.0747895E-1,0E0,0E0,0E0],"parents":[2147483647,0,0,1,1,3,3,5,5,6,6,8,8,11,11],"right_children":[2,4,-1,6,-1,8,10,-1,12,-1,-1,14,-1,-1,-1],"split_conditions":[-4.2641157E-1,-4.2168427E-1,-7.405415E-2,-6.0800654E-1,-6.4818196E-2,-6.4560086E-2,3.7374339E-1,4.4155754E-2,1.9952565E-1,7.933315E-2,-4.6759984E-3,-1.3032378E-1,2.9541278E-2,-8.939935E-4,-5.928695E-2],"split_indices":[0,38,0,40,0,19,6,0,19,0,0,24,0,0,0],"split_type":[0,0,0,0,0,0,0,0,0,0,0,0,0,0,0],"sum_hessian":[1.7966536E1,1.5337044E1,2.6294906E0,1.3521564E1,1.8154807E0,7.4791384E0,6.042425E0,1.3177706E0,6.1613674E0,4.4165173E0,1.6259079E0,5.0837026E0,1.077665E0,3.3793082E0,1.7043943E0],"tree_param":{"num_deleted":"0","num_feature":"78","num_nodes":"15","size_leaf_vector":"1"}},{"base_weights":[-2.2086523E-2,1.2705114E-1,-7.114597E-2,-6.314141E-2,2.643045E-1,4.8358467E-1,-1.7745887E-1,7.176518E-2,6.7663655E-2,-8.1602775E-2,1.7719609E-1,-3.450449E-2,3.1966394E-1,-2.492175E-2,6.0997326E-2,4.6826722E-4,4.5991782E-2],"categories":[],"categories_nodes":[],"categories_segments":[],"categories_sizes":[],"default_left":[0,0,0,0,0,0,0,0,0,0,0,0,0,0,0,0,0],"id":56,"left_children":[1,3,-1,-1,5,7,9,-1,11,-1,13,-1,15,-1,-1,-1,-1],"loss_changes":[1.9124342E0,1.7719889E0,0E0,0E0,1.4188315E0,8.728516E-1,1.3440539E0,0E0,5.795993E-1,0E0,9.3202144E-1,0E0,1.4454931E-1,0E0,0E0,0E0,0E0],"parents":[2147483647,0,0,1,1,4,4,5,5,